{"learner":{"attributes":{},"feature_names":[],"feature_types":[],"gradient_booster":{"model":{"gbtree_model_param":{"num_trees":"250","size_leaf_vector":"0"},"tree_info":[0,0,0,0,0,0,0,0,0,0,0,0,0,0,0,0,0,0,0,0,0,0,0,0,0,0,0,0,0,0,0,0,0,0,0,0,0,0,0,0,0,0,0,0,0,0,0,0,0,0,0,0,0,0,0,0,0,0,0,0,0,0,0,0,0,0,0,0,0,0,0,0,0,0,0,0,0,0,0,0,0,0,0,0,0,0,0,0,0,0,0,0,0,0,0,0,0,0,0,0,0,0,0,0,0,0,0,0,0,0,0,0,0,0,0,0,0,0,0,0,0,0,0,0,0,0,0,0,0,0,0,0,0,0,0,0,0,0,0,0,0,0,0,0,0,0,0,0,0,0,0,0,0,0,0,0,0,0,0,0,0,0,0,0,0,0,0,0,0,0,0,0,0,0,0,0,0,0,0,0,0,0,0,0,0,0,0,0,0,0,0,0,0,0,0,0,0,0,0,0,0,0,0,0,0,0,0,0,0,0,0,0,0,0,0,0,0,0,0,0,0,0,0,0,0,0,0,0,0,0,0,0,0,0,0,0,0,0,0,0,0,0,0,0,0,0,0,0,0,0],"trees":[{"base_weights":[-3.1727397E-1,-3.8142034E-1,-2.279519E-1,-1.8162394E-1,-3.9436227E-1,-1.3933416E-1,-2.6499483E-1,-4.276316E-1,-6.2893085E-2,3.2142857E-1,-3.970588E-1,-3.236246E-3,-2.2266401E-1,-3.640873E-1,-2.2990915E-1,-4.9264705E-1,1.1111111E-1,2.5694445E-1,-3.2386363E-1,4.5833334E-1,-3.3333334E-1,3.6363637E-1,-3.9929774E-1,1.0483871E-1,-1.6532259E-1,-2.516129E-1,1.2820514E-1,-2.5358853E-1,-4.408784E-1,-1.8126386E-1,-3.1226414E-1,-3.75E-1,4.1666666E-1,3.9473683E-2,4.857143E-1,2.7272728E-1,-4.0384614E-1,4.5E-1,-2.5E-1,-1.388889E-1,-4.059349E-1,1.5E-1,-3.529412E-1,6.666667E-2,-2.9375E-1,-2.719101E-1,1.904762E-1,-2.9166666E-1,3.0357143E-1,2.0833333E-1,-3.4770116E-1,4E-1,-4.5376712E-1,-3.6824325E-1,-1.4437085E-1,-2.804054E-1,-4.7126436E-1],"categories":[],"categories_nodes":[],"categories_segments":[],"categories_sizes":[],"default_left":[false,false,false,false,false,false,false,false,false,false,false,false,false,false,false,false,false,false,false,false,false,false,false,false,false,false,false,false,false,false,false,false,false,false,false,false,false,false,false,false,false,false,false,false,false,false,false,false,false,false,false,false,false,false,false,false,false],"id":0,"left_children":[1,3,5,7,9,11,13,15,17,19,21,23,25,27,29,-1,31,33,35,-1,-1,37,39,41,43,45,47,49,51,53,55,-1,-1,-1,-1,-1,-1,-1,-1,-1,-1,-1,-1,-1,-1,-1,-1,-1,-1,-1,-1,-1,-1,-1,-1,-1,-1],"loss_changes":[3.749408E1,9.795593E0,8.970703E0,6.8079405E0,7.043396E0,9.196847E0,6.6402893E0,2.7167616E0,1.3354655E1,1.407738E0,6.225403E0,5.4302316E0,5.141365E0,4.1648026E0,5.6762466E0,0E0,1.4930555E0,3.5628815E0,4.309222E0,0E0,0E0,6.954546E-1,6.0966187E0,3.898292E0,3.7140117E0,4.2243195E0,2.960165E0,9.158228E0,3.389515E0,6.169039E0,2.5525932E0,0E0,0E0,2.9788911E0,0E0,7.755682E-1,2.8981237E0,0E0,0E0,7.2253785E0,5.131897E0,2.996691E0,9.627099E-1,4.060913E0,3.6328554E0,3.452919E0,1.5037203E0,8.194444E-1,2.043254E0,2.1199536E0,3.6168804E0,0E0,1.9737701E0,6.585764E0,6.556324E0,2.6822891E0,3.0636597E-1],"parents":[2147483647,0,0,1,1,2,2,3,3,4,4,5,5,6,6,7,7,8,8,9,9,10,10,11,11,12,12,13,13,14,14,16,16,17,17,18,18,21,21,22,22,23,23,24,24,25,25,26,26,27,27,28,28,29,29,30,30],"right_children":[2,4,6,8,10,12,14,16,18,20,22,24,26,28,30,-1,32,34,36,-1,-1,38,40,42,44,46,48,50,52,54,56,-1,-1,-1,-1,-1,-1,-1,-1,-1,-1,-1,-1,-1,-1,-1,-1,-1,-1,-1,-1,-1,-1,-1,-1,-1,-1],"split_conditions":[1.9936883E0,2.87E1,-5.046048E0,-7.390514E-1,1.1583439E1,4.8226215E1,2.2894173E0,9.7265434E-1,1.6587404E0,5.0093353E1,9.5772713E-1,2.5570114E1,4.76E1,1.5E0,9.91486E-1,-1.4779411E-2,2.16E1,9.5631385E-1,9.588819E-1,1.375E-2,-1E-2,4.69E1,9.791455E-1,2.294228E0,-1.835947E-1,1.1095937E0,9.657374E-1,2.0803666E0,-2.365E1,5.16E0,3.4E0,-1.12499995E-2,1.2499999E-2,1.1842104E-3,1.4571428E-2,8.181818E-3,-1.2115384E-2,1.3499999E-2,-7.5E-3,-4.166667E-3,-1.2178047E-2,4.5000003E-3,-1.0588235E-2,2E-3,-8.812499E-3,-8.157303E-3,5.7142857E-3,-8.749999E-3,9.107143E-3,6.2499996E-3,-1.04310345E-2,1.2E-2,-1.3613014E-2,-1.1047297E-2,-4.3311254E-3,-8.412162E-3,-1.413793E-2],"split_indices":[59,0,2,92,61,4,59,9,59,3,12,47,31,27,51,0,0,7,22,0,0,0,13,51,91,63,15,60,43,35,23,0,0,0,0,0,0,0,0,0,0,0,0,0,0,0,0,0,0,0,0,0,0,0,0,0,0],"split_type":[0,0,0,0,0,0,0,0,0,0,0,0,0,0,0,0,0,0,0,0,0,0,0,0,0,0,0,0,0,0,0,0,0,0,0,0,0,0,0,0,0,0,0,0,0,0,0,0,0,0,0,0,0,0,0,0,0],"sum_hessian":[6.558E3,3.815E3,2.743E3,2.33E2,3.582E3,8.1E2,1.933E3,7.5E1,1.58E2,1.3E1,3.569E3,3.08E2,5.02E2,5.03E2,1.43E3,6.7E1,8E0,7.1E1,8.7E1,1.1E1,2E0,1E1,3.559E3,1.85E2,1.23E2,4.64E2,3.8E1,2.08E2,2.95E2,9.01E2,5.29E2,3E0,5E0,3.7E1,3.4E1,1E1,7.7E1,9E0,1E0,8.9E1,3.47E3,1.69E2,1.6E1,4.4E1,7.9E1,4.44E2,2E1,1.1E1,2.7E1,3.5E1,1.73E2,4E0,2.91E2,1.47E2,7.54E2,4.43E2,8.6E1],"tree_param":{"num_deleted":"0","num_feature":"153","num_nodes":"57","size_leaf_vector":"0"}},{"base_weights":[-3.07766E-1,-3.6997992E-1,-2.2113474E-1,-1.8579239E-1,-3.8322812E-1,-1.351726E-1,-2.570676E-1,-4.3091178E-1,-7.520386E-2,3.1205356E-1,-3.858651E-1,-3.1808931E-3,-2.1598823E-1,-3.5317618E-1,-2.2303839E-1,-4.6669406E-1,3.6562502E-1,1.6002584E-1,-2.848809E-1,4.4572914E-1,-3.2666668E-1,3.5327274E-1,-3.8805532E-1,1.0166084E-1,-1.6041784E-1,-2.4406976E-1,1.24368146E-1,-2.6255873E-1,-4.4203952E-1,-1.75843E-1,-3.029388E-1,-4.7900385E-1,-1.9363235E-1,-1.1045301E-1,3.91746E-1,-3.736608E-1,2.5546423E-1,4.3785003E-1,-2.4625E-1,-1.3476852E-1,-3.94556E-1,1.455265E-1,-3.429758E-1,2.2742501E-1,-2.3276488E-1,-2.6377112E-1,1.85034E-1,-2.8364584E-1,2.9478958E-1,-4.3171602E-1,-1.5918845E-1,3.2916665E-1,-4.49496E-1,-2.1083175E-1,1.1340798E-2,-2.720122E-1,-4.5728895E-1],"categories":[],"categories_nodes":[],"categories_segments":[],"categories_sizes":[],"default_left":[false,false,false,false,false,false,false,false,false,false,false,false,false,false,false,false,false,false,false,false,false,false,false,false,false,false,false,false,false,false,false,false,false,false,false,false,false,false,false,false,false,false,false,false,false,false,false,false,false,false,false,false,false,false,false,false,false],"id":1,"left_children":[1,3,5,7,9,11,13,15,17,19,21,23,25,27,29,31,-1,33,35,-1,-1,37,39,41,43,45,47,49,51,53,55,-1,-1,-1,-1,-1,-1,-1,-1,-1,-1,-1,-1,-1,-1,-1,-1,-1,-1,-1,-1,-1,-1,-1,-1,-1,-1],"loss_changes":[3.5269043E1,9.240356E0,8.441101E0,6.961301E0,6.64563E0,8.650244E0,6.246376E0,2.4507885E0,8.874275E0,1.3409433E0,5.8776245E0,5.1101713E0,4.8378925E0,3.9424324E0,5.3429337E0,1.6607094E-1,0E0,5.370679E0,4.6527762E0,0E0,0E0,6.655865E-1,5.768982E0,3.677708E0,3.5322878E0,3.9798832E0,2.7954545E0,4.3377056E0,1.602829E0,5.9098797E0,2.4055824E0,0E0,4.6109846E-1,3.3004415E0,1.7757621E0,3.186736E0,1.9312794E0,0E0,0E0,7.227498E0,4.8117065E0,2.9990602E0,9.623382E-1,3.2606156E0,3.563486E0,3.4551125E0,1.5025879E0,8.1987524E-1,2.0442803E0,1.5872879E0,5.4134593E0,0E0,8.347702E-1,7.8587494E0,5.060599E0,2.6830482E0,3.1388664E-1],"parents":[2147483647,0,0,1,1,2,2,3,3,4,4,5,5,6,6,7,7,8,8,9,9,10,10,11,11,12,12,13,13,14,14,15,15,17,17,18,18,21,21,22,22,23,23,24,24,25,25,26,26,27,27,28,28,29,29,30,30],"right_children":[2,4,6,8,10,12,14,16,18,20,22,24,26,28,30,32,-1,34,36,-1,-1,38,40,42,44,46,48,50,52,54,56,-1,-1,-1,-1,-1,-1,-1,-1,-1,-1,-1,-1,-1,-1,-1,-1,-1,-1,-1,-1,-1,-1,-1,-1,-1,-1],"split_conditions":[1.9936883E0,2.9E1,-5.046048E0,-7.4281013E-1,1.1583439E1,4.8226215E1,2.2894173E0,1.5764978E0,1.6587404E0,5.0093353E1,9.5772713E-1,2.5570114E1,4.76E1,4.2857143E1,9.91486E-1,1.0271515E0,1.096875E-2,9.532569E-1,1.6060653E0,1.3371874E-2,-9.8E-3,4.69E1,9.791455E-1,2.294228E0,2.0998745E0,1.1095937E0,9.657374E-1,3.26E1,3.7830193E1,7.809282E1,3.4E0,-1.43701155E-2,-5.8089704E-3,-3.3135903E-3,1.175238E-2,-1.1209824E-2,7.6639266E-3,1.31355E-2,-7.3875E-3,-4.043055E-3,-1.183668E-2,4.365795E-3,-1.0289273E-2,6.82275E-3,-6.9829463E-3,-7.913133E-3,5.55102E-3,-8.509375E-3,8.843687E-3,-1.295148E-2,-4.7756536E-3,9.8749995E-3,-1.3484879E-2,-6.3249525E-3,3.4022392E-4,-8.160366E-3,-1.3718668E-2],"split_indices":[59,0,2,92,61,4,59,58,59,3,12,47,31,68,51,10,0,16,55,0,0,0,13,51,56,63,15,1,4,81,23,0,0,0,0,0,0,0,0,0,0,0,0,0,0,0,0,0,0,0,0,0,0,0,0,0,0],"split_type":[0,0,0,0,0,0,0,0,0,0,0,0,0,0,0,0,0,0,0,0,0,0,0,0,0,0,0,0,0,0,0,0,0,0,0,0,0,0,0,0,0,0,0,0,0,0,0,0,0,0,0,0,0,0,0,0,0],"sum_hessian":[6.558E3,3.815E3,2.743E3,2.57E2,3.558E3,8.1E2,1.933E3,7.9E1,1.78E2,1.3E1,3.545E3,3.08E2,5.02E2,5.03E2,1.43E3,7.6E1,3E0,8.4E1,9.4E1,1.1E1,2E0,1E1,3.535E3,1.85E2,1.23E2,4.64E2,3.8E1,2.51E2,2.52E2,9.01E2,5.29E2,7.2E1,4E0,3.9E1,4.5E1,8.1E1,1.3E1,9E0,1E0,8.9E1,3.446E3,1.69E2,1.6E1,1.9E1,1.04E2,4.44E2,2E1,1.1E1,2.7E1,9.4E1,1.57E2,2E0,2.5E2,7.59E2,1.42E2,4.43E2,8.6E1],"tree_param":{"num_deleted":"0","num_feature":"153","num_nodes":"57","size_leaf_vector":"0"}},{"base_weights":[-2.985434E-1,-3.5888338E-1,-2.1452159E-1,-1.7057446E-1,-3.7108135E-1,-1.3112742E-1,-2.4938102E-1,-4.0303057E-1,-5.839057E-2,3.0294707E-1,-3.7362066E-1,-3.1051573E-3,-2.095126E-1,-2.1723473E-1,-3.4738955E-1,-4.647917E-1,1.0839008E-1,2.4414328E-1,-3.0525473E-1,4.334716E-1,-3.2013336E-1,-4.3944725E-1,-3.4892806E-1,9.857916E-2,-1.556066E-1,-2.3675273E-1,1.20645694E-1,-2.7542126E-1,-1.293328E-1,-3.9619341E-1,-1.9930309E-1,-3.5578492E-1,3.9977506E-1,1.5049539E-2,4.3760595E-1,2.6861686E-1,-3.8227183E-1,2.0851287E-1,-4.4437376E-1,-3.6356568E-1,-2.0920432E-1,-1.4351146E-1,1.7685995E-1,6.816417E-2,-2.7953258E-1,-2.5155592E-1,2.9729354E-1,-2.758456E-1,2.8626177E-1,-4.0861037E-1,-2.1550418E-1,8.351105E-3,-2.21672E-1,2.0011254E-1,-4.086913E-1,-3.0188793E-1,1.831917E-1],"categories":[],"categories_nodes":[],"categories_segments":[],"categories_sizes":[],"default_left":[false,false,false,false,false,false,false,false,false,false,false,false,false,false,false,false,false,false,false,false,false,false,false,false,false,false,false,false,false,false,false,false,false,false,false,false,false,false,false,false,false,false,false,false,false,false,false,false,false,false,false,false,false,false,false,false,false],"id":2,"left_children":[1,3,5,7,9,11,13,15,17,19,21,23,25,27,29,-1,31,33,35,-1,-1,37,39,41,43,45,47,49,51,53,55,-1,-1,-1,-1,-1,-1,-1,-1,-1,-1,-1,-1,-1,-1,-1,-1,-1,-1,-1,-1,-1,-1,-1,-1,-1,-1],"loss_changes":[3.317633E1,8.702026E0,7.944313E0,6.0786786E0,6.2457275E0,8.137774E0,6.017807E0,2.4509087E0,1.1949404E1,1.2773504E0,5.6494446E0,4.807004E0,4.5523205E0,7.4267426E0,3.3611794E0,0E0,1.3595166E0,3.1845322E0,3.9921017E0,0E0,0E0,3.1890717E0,5.2435913E0,3.5502753E0,3.4576995E0,3.750887E0,2.6399117E0,6.9106674E0,7.4138937E0,2.7423477E0,4.7638845E0,0E0,0E0,2.6525447E0,7.9575586E-1,7.716762E-1,2.856598E0,1.0983927E0,2.0552979E0,5.385895E0,1.0444322E1,2.9368515E0,4.2431474E0,4.040123E0,3.5884314E0,3.3546753E0,1.3710068E0,8.201882E-1,2.045138E0,4.142002E0,7.6345177E0,5.1421013E0,6.3929596E0,1.0690002E0,2.3300667E0,3.0582962E0,2.6819217E0],"parents":[2147483647,0,0,1,1,2,2,3,3,4,4,5,5,6,6,7,7,8,8,9,9,10,10,11,11,12,12,13,13,14,14,16,16,17,17,18,18,21,21,22,22,23,23,24,24,25,25,26,26,27,27,28,28,29,29,30,30],"right_children":[2,4,6,8,10,12,14,16,18,20,22,24,26,28,30,-1,32,34,36,-1,-1,38,40,42,44,46,48,50,52,54,56,-1,-1,-1,-1,-1,-1,-1,-1,-1,-1,-1,-1,-1,-1,-1,-1,-1,-1,-1,-1,-1,-1,-1,-1,-1,-1],"split_conditions":[1.9936883E0,2.87E1,-5.046048E0,-7.390514E-1,1.1583439E1,4.8226215E1,-3.2E0,9.7265434E-1,1.6587404E0,5.0093353E1,1.2534817E0,2.5570114E1,4.76E1,2.2402075E1,2.4983022E0,-1.394375E-2,2.16E1,9.5560634E-1,9.588819E-1,1.3004147E-2,-9.6040005E-3,-1.067E1,5.742E1,9.684117E-1,-1.835947E-1,1.1548065E0,9.657374E-1,9.9429315E-1,-2.086E1,-1.2E0,8.312633E-1,-1.0673547E-2,1.1993252E-2,4.5148615E-4,1.3128178E-2,8.058505E-3,-1.1468154E-2,6.255386E-3,-1.3331212E-2,-1.090697E-2,-6.2761293E-3,-4.3053436E-3,5.3057983E-3,2.044925E-3,-8.385978E-3,-7.5466773E-3,8.918806E-3,-8.275367E-3,8.587853E-3,-1.2258311E-2,-6.4651254E-3,2.5053316E-4,-6.6501596E-3,6.003376E-3,-1.2260739E-2,-9.056638E-3,5.495751E-3],"split_indices":[59,0,2,92,61,4,41,9,59,3,59,47,31,65,59,0,0,16,22,0,0,43,36,6,91,63,15,21,43,27,63,0,0,0,0,0,0,0,0,0,0,0,0,0,0,0,0,0,0,0,0,0,0,0,0,0,0],"split_type":[0,0,0,0,0,0,0,0,0,0,0,0,0,0,0,0,0,0,0,0,0,0,0,0,0,0,0,0,0,0,0,0,0,0,0,0,0,0,0,0,0,0,0,0,0,0,0,0,0,0,0,0,0,0,0,0,0],"sum_hessian":[6.558E3,3.815E3,2.743E3,2.33E2,3.582E3,8.1E2,1.933E3,7.5E1,1.58E2,1.3E1,3.569E3,3.08E2,5.02E2,1.458E3,4.75E2,6.7E1,8E0,7.1E1,8.7E1,1.1E1,2E0,9.69E2,2.6E3,1.85E2,1.23E2,4.64E2,3.8E1,8.76E2,5.82E2,3.56E2,1.19E2,3E0,5E0,3.3E1,3.8E1,1E1,7.7E1,7E0,9.62E2,2.352E3,2.48E2,4.5E1,1.4E2,4.4E1,7.9E1,4.52E2,1.2E1,1.1E1,2.7E1,2.7E2,6.06E2,2.34E2,3.48E2,7E0,3.49E2,9.4E1,2.5E1],"tree_param":{"num_deleted":"0","num_feature":"153","num_nodes":"57","size_leaf_vector":"0"}},{"base_weights":[-2.8959653E-1,-3.4812298E-1,-2.081E-1,-1.746053E-1,-3.6060387E-1,-1.2719811E-1,-2.4191765E-1,-4.0605327E-1,-7.0189424E-2,2.9410154E-1,-3.6308703E-1,-3.0292936E-3,-2.0322388E-1,-2.107349E-1,-3.3698848E-1,-4.399724E-1,3.484035E-1,1.508455E-1,-2.6721868E-1,4.2155114E-1,-3.137307E-1,3.5311255E-1,-3.6521232E-1,9.562715E-2,-1.5098953E-1,-2.2964722E-1,1.17034346E-1,-2.6717997E-1,-1.2546378E-1,-3.9291748E-1,-2.1281666E-1,-1.8196066E-1,-4.5161742E-1,3.155582E-1,-1.9573243E-1,-3.5271555E-1,2.5263587E-1,4.3584436E-1,-2.3710278E-1,-1.19984634E-1,-3.715092E-1,1.3789053E-1,-3.3263183E-1,-2.5404724E-1,1.0798619E-1,-2.4834606E-1,1.7752574E-1,-2.6825982E-1,2.7798063E-1,-4.164599E-2,-3.0014488E-1,8.101659E-3,-2.1504089E-1,1.9485958E-1,-4.0638405E-1,-5.0478432E-2,-4.301699E-1],"categories":[],"categories_nodes":[],"categories_segments":[],"categories_sizes":[],"default_left":[false,false,false,false,false,false,false,false,false,false,false,false,false,false,false,false,false,false,false,false,false,false,false,false,false,false,false,false,false,false,false,false,false,false,false,false,false,false,false,false,false,false,false,false,false,false,false,false,false,false,false,false,false,false,false,false,false],"id":3,"left_children":[1,3,5,7,9,11,13,15,17,19,21,23,25,27,29,31,-1,33,35,-1,-1,37,39,41,43,45,47,49,51,53,55,-1,-1,-1,-1,-1,-1,-1,-1,-1,-1,-1,-1,-1,-1,-1,-1,-1,-1,-1,-1,-1,-1,-1,-1,-1,-1],"loss_changes":[3.1212036E1,8.201172E0,7.47657E0,6.2065444E0,5.8927917E0,7.6552496E0,5.662468E0,2.20053E0,7.83582E0,1.2168052E0,5.5264893E0,4.524983E0,4.283409E0,6.988838E0,3.2221107E0,1.4917374E-1,0E0,4.914057E0,4.3114734E0,0E0,0E0,6.4046514E-1,5.4155884E0,3.4124064E0,3.3369246E0,3.5844402E0,2.4930258E0,6.50774E0,6.9769926E0,2.6674995E0,5.2709966E0,4.3408707E-1,0E0,2.5749202E0,2.3892844E0,3.1324205E0,1.8965713E0,0E0,0E0,7.2348256E0,4.5520935E0,2.9454503E0,9.631845E-1,3.6257815E0,2.6122646E0,3.458912E0,1.5009384E0,8.2039213E-1,2.0458395E0,6.2579565E0,5.386551E0,5.1420965E0,6.3966923E0,1.0678723E0,1.3476067E0,5.854199E0,7.944536E-1],"parents":[2147483647,0,0,1,1,2,2,3,3,4,4,5,5,6,6,7,7,8,8,9,9,10,10,11,11,12,12,13,13,14,14,15,15,17,17,18,18,21,21,22,22,23,23,24,24,25,25,26,26,27,27,28,28,29,29,30,30],"right_children":[2,4,6,8,10,12,14,16,18,20,22,24,26,28,30,32,-1,34,36,-1,-1,38,40,42,44,46,48,50,52,54,56,-1,-1,-1,-1,-1,-1,-1,-1,-1,-1,-1,-1,-1,-1,-1,-1,-1,-1,-1,-1,-1,-1,-1,-1,-1,-1],"split_conditions":[1.9936883E0,2.9E1,-5.046048E0,-7.4281013E-1,1.1583439E1,4.8226215E1,-3.2E0,1.5764978E0,1.6587404E0,5.0093353E1,9.5772713E-1,2.5570114E1,4.76E1,2.2402075E1,2.5427036E0,2.28E1,1.0452105E-2,1.0291953E0,1.6060653E0,1.2646534E-2,-9.411921E-3,4.69E1,9.791455E-1,2.294228E0,9.3936175E-1,1.1095937E0,9.657374E-1,-9.4E0,-2.086E1,-1.2E0,1.2906532E0,-5.4588197E-3,-1.3548522E-2,9.466746E-3,-5.8719725E-3,-1.0581466E-2,7.5790756E-3,1.307533E-2,-7.1130833E-3,-3.599539E-3,-1.1145276E-2,4.136716E-3,-9.978955E-3,-7.6214173E-3,3.2395856E-3,-7.4503818E-3,5.3257723E-3,-8.047795E-3,8.339419E-3,-1.2493796E-3,-9.004346E-3,2.4304976E-4,-6.451227E-3,5.8457875E-3,-1.2191521E-2,-1.514353E-3,-1.2905097E-2],"split_indices":[59,0,2,92,61,4,41,58,59,3,12,47,31,65,55,0,0,11,55,0,0,0,13,51,63,63,15,31,43,27,51,0,0,0,0,0,0,0,0,0,0,0,0,0,0,0,0,0,0,0,0,0,0,0,0,0,0],"split_type":[0,0,0,0,0,0,0,0,0,0,0,0,0,0,0,0,0,0,0,0,0,0,0,0,0,0,0,0,0,0,0,0,0,0,0,0,0,0,0,0,0,0,0,0,0,0,0,0,0,0,0,0,0,0,0,0,0],"sum_hessian":[6.558E3,3.815E3,2.743E3,2.57E2,3.558E3,8.1E2,1.933E3,7.9E1,1.78E2,1.3E1,3.545E3,3.08E2,5.02E2,1.458E3,4.75E2,7.6E1,3E0,8.4E1,9.4E1,1.1E1,2E0,1E1,3.535E3,1.85E2,1.23E2,4.64E2,3.8E1,8.76E2,5.82E2,3.26E2,1.49E2,4E0,7.2E1,5.7E1,2.7E1,8.1E1,1.3E1,9E0,1E0,8.9E1,3.446E3,1.69E2,1.6E1,8.8E1,3.5E1,4.44E2,2E1,1.1E1,2.7E1,1.12E2,7.64E2,2.34E2,3.48E2,7E0,3.19E2,8.6E1,6.3E1],"tree_param":{"num_deleted":"0","num_feature":"153","num_nodes":"57","size_leaf_vector":"0"}},{"base_weights":[-2.809182E-1,-3.428862E-1,-2.083209E-1,-2.3078507E-1,-3.634947E-1,-1.923851E-1,-3.50219E-1,-6.2182926E-2,-2.7501178E-1,-3.7856522E-1,-2.117303E-1,-9.533959E-2,-2.1506213E-1,4.200856E-1,-3.6189002E-1,2.4138464E-1,-2.1907279E-1,-1.4590422E-2,-3.180292E-1,-1.6768251E-1,-3.863146E-1,2.356612E-2,-4.241555E-1,-1.4185786E-1,1.3620883E-1,-2.828134E-1,-1.7074852E-1,5.7397335E-4,-3.864003E-1,3.8816503E-1,-2.3777303E-1,-3.619764E-1,2.3621067E-1,-3.1061623E-1,1.6338982E-1,2.9501057E-1,-3.3049193E-1,-2.8346682E-1,4.0067014E-1,-4.0166283E-1,-3.0339828E-1,3.250123E-1,-2.0894738E-1,-4.364462E-1,1.1205737E-1,2.180641E-1,-1.782227E-1,2.2703998E-1,-3.1491664E-1,-1.0385466E-2,-3.1076813E-1,-1.08620316E-1,-2.516817E-1,2.9911208E-1,-3.2787535E-1,-2.516408E-1,-4.2659792E-1],"categories":[],"categories_nodes":[],"categories_segments":[],"categories_sizes":[],"default_left":[false,false,false,false,false,false,false,false,false,false,false,false,false,false,false,false,false,false,false,false,false,false,false,false,false,false,false,false,false,false,false,false,false,false,false,false,false,false,false,false,false,false,false,false,false,false,false,false,false,false,false,false,false,false,false,false,false],"id":4,"left_children":[1,3,5,7,9,11,13,15,17,19,21,23,25,-1,27,29,31,33,35,37,39,41,43,45,47,49,51,53,55,-1,-1,-1,-1,-1,-1,-1,-1,-1,-1,-1,-1,-1,-1,-1,-1,-1,-1,-1,-1,-1,-1,-1,-1,-1,-1,-1,-1],"loss_changes":[2.9435608E1,8.087402E0,6.7684174E0,4.0990047E0,6.7493286E0,5.9654007E0,2.8850555E0,5.5775747E0,4.8909225E0,4.372101E0,1.3605342E1,5.5880494E0,6.5687943E0,0E0,2.665451E0,2.9055328E0,5.0952497E0,3.370016E0,2.9625587E0,6.5625954E0,3.2098694E0,9.17965E0,9.9133873E-1,5.68001E0,3.6364317E0,6.622383E0,6.6853523E0,2.0591643E0,1.4148293E0,1.4494476E0,1.1548259E0,3.1398268E0,3.060312E0,1.3954949E0,2.9672894E0,5.5468494E-1,1.7247925E0,6.9168735E0,7.2626424E-1,2.4614258E0,4.2580414E0,3.4331722E0,3.2004178E0,9.479561E-1,3.240993E-1,3.8965502E0,3.7569666E0,2.3142517E0,1.4103283E0,3.9796908E0,3.6121902E0,5.8044558E0,5.2404976E0,1.2978401E0,6.7494535E-1,3.159109E0,7.817459E-1],"parents":[2147483647,0,0,1,1,2,2,3,3,4,4,5,5,6,6,7,7,8,8,9,9,10,10,11,11,12,12,14,14,15,15,16,16,17,17,18,18,19,19,20,20,21,21,22,22,23,23,24,24,25,25,26,26,27,27,28,28],"right_children":[2,4,6,8,10,12,14,16,18,20,22,24,26,-1,28,30,32,34,36,38,40,42,44,46,48,50,52,54,56,-1,-1,-1,-1,-1,-1,-1,-1,-1,-1,-1,-1,-1,-1,-1,-1,-1,-1,-1,-1,-1,-1,-1,-1,-1,-1,-1,-1],"split_conditions":[1.9161211E0,5.225055E-1,2.3554435E0,1.4919877E1,1.0651926E0,-9.9E0,0E0,9.964337E-1,-1.1690952E2,2.82E1,2.5795394E-1,8.0274624E-1,1.0527076E0,1.2602568E-2,4.3491178E0,4.051973E1,1.030947E0,4.8717996E-1,9.5772713E-1,1.067764E0,1.8049271E0,1.2228854E0,9.4024765E-1,1.005E1,1.3108E2,9.2856336E-1,1.1077442E0,1.829352E0,9.768419E-1,1.164495E-2,-7.133191E-3,-1.0859291E-2,7.08632E-3,-9.318487E-3,4.9016946E-3,8.8503165E-3,-9.914758E-3,-8.504004E-3,1.2020104E-2,-1.2049885E-2,-9.101949E-3,9.750369E-3,-6.268421E-3,-1.3093386E-2,3.361721E-3,6.5419227E-3,-5.346681E-3,6.8111992E-3,-9.447499E-3,-3.1156396E-4,-9.323044E-3,-3.2586094E-3,-7.5504505E-3,8.973362E-3,-9.83626E-3,-7.549224E-3,-1.2797938E-2],"split_indices":[59,50,51,73,12,31,112,21,70,0,87,64,13,0,86,44,12,52,12,22,60,56,8,36,36,22,22,50,11,0,0,0,0,0,0,0,0,0,0,0,0,0,0,0,0,0,0,0,0,0,0,0,0,0,0,0,0],"split_type":[0,0,0,0,0,0,0,0,0,0,0,0,0,0,0,0,0,0,0,0,0,0,0,0,0,0,0,0,0,0,0,0,0,0,0,0,0,0,0,0,0,0,0,0,0,0,0,0,0,0,0,0,0,0,0,0,0],"sum_hessian":[6.558E3,3.536E3,3.022E3,5.51E2,2.985E3,2.719E3,3.03E2,1.15E2,4.36E2,2.714E3,2.71E2,5.16E2,2.203E3,4E0,2.99E2,3.9E1,7.6E1,6.2E1,3.74E2,9.7E1,2.617E3,1.29E2,1.42E2,4.3E2,8.6E1,8.69E2,1.334E3,1.9E1,2.8E2,3E1,9E0,5.8E1,1.8E1,2.3E1,3.9E1,7E0,3.67E2,8.1E1,1.6E1,2.205E3,4.12E2,5.6E1,7.3E1,1.39E2,3E0,3.9E1,3.91E2,7.2E1,1.4E1,8.1E1,7.88E2,7.56E2,5.78E2,1E1,9E0,6.6E1,2.14E2],"tree_param":{"num_deleted":"0","num_feature":"153","num_nodes":"57","size_leaf_vector":"0"}},{"base_weights":[-2.7249968E-1,-3.1705576E-1,-1.7626642E-1,-4.0392935E-1,-2.9282007E-1,-1.5838638E-1,-3.747392E-1,-4.0873653E-1,2.2823182E-1,-3.0706674E-1,-1.7403929E-1,-1.4352939E-1,-3.9761597E-1,2.6266968E-1,-3.955206E-1,-4.151523E-1,-9.964654E-2,4.5079538E-1,-2.9297262E-1,-3.1419742E-1,-1.10229515E-1,2.9545683E-2,-3.459893E-1,-9.804944E-2,-2.1390036E-1,-4.1489246E-1,3.6263517E-1,-2.257458E-1,4.0550196E-1,1.484538E-1,-4.0644315E-1,-4.3077156E-1,-2.768541E-1,-4.117704E-1,2.8486672E-1,-2.4749154E-1,-3.3811334E-1,3.7939253E-1,-3.3135346E-1,1.4583842E-1,-1.6771196E-1,-3.732461E-1,-2.2605184E-2,-5.1733714E-2,-2.1040979E-1,-1.3579375E-1,-3.007468E-1,2.6438874E-1,-4.2363015E-1,3.4907684E-1,-2.2670765E-1,3.361717E-2,-4.177253E-1],"categories":[],"categories_nodes":[],"categories_segments":[],"categories_sizes":[],"default_left":[false,false,false,false,false,false,false,false,false,false,false,false,false,false,false,false,false,false,false,false,false,false,false,false,false,false,false,false,false,false,false,false,false,false,false,false,false,false,false,false,false,false,false,false,false,false,false,false,false,false,false,false,false],"id":5,"left_children":[1,3,5,7,9,11,13,15,17,19,21,23,25,27,29,31,33,-1,-1,35,37,39,41,43,45,47,-1,-1,-1,49,51,-1,-1,-1,-1,-1,-1,-1,-1,-1,-1,-1,-1,-1,-1,-1,-1,-1,-1,-1,-1,-1,-1],"loss_changes":[2.8067627E1,9.318329E0,7.314842E0,3.0562286E0,5.8828735E0,6.7244034E0,2.3690014E0,1.8782196E0,1.0600798E0,4.360016E0,1.3242655E1,5.733471E0,1.6083813E0,5.101093E-1,1.0466423E0,1.9285278E0,2.6376307E0,0E0,0E0,4.73584E0,1.2143366E1,4.015955E0,1.7985191E0,5.6823463E0,4.741371E0,7.58955E-1,0E0,0E0,0E0,3.802025E-1,8.2330894E-1,3.0584717E-1,6.8387027E0,0E0,1.2499197E0,5.246525E0,4.1212616E0,2.3313246E0,2.8205996E0,6.2646084E0,1.9609234E0,2.0762825E0,1.8105017E0,9.453863E0,5.421631E0,7.186114E0,3.7849503E0,0E0,7.687149E-1,0E0,0E0,6.13177E-1,7.693863E-1],"parents":[2147483647,0,0,1,1,2,2,3,3,4,4,5,5,6,6,7,7,8,8,9,9,10,10,11,11,12,12,13,13,14,14,15,15,16,16,19,19,20,20,21,21,22,22,23,23,24,24,25,25,29,29,30,30],"right_children":[2,4,6,8,10,12,14,16,18,20,22,24,26,28,30,32,34,-1,-1,36,38,40,42,44,46,48,-1,-1,-1,50,52,-1,-1,-1,-1,-1,-1,-1,-1,-1,-1,-1,-1,-1,-1,-1,-1,-1,-1,-1,-1,-1,-1],"split_conditions":[2.193677E0,1.2534817E0,3.1E0,1.4641005E0,5.53E1,6.509203E1,0E0,1.319E2,3.68E1,1.0708493E0,1.432E1,2.76E1,4.7742798E1,2.5453035E1,-1.86E1,1.0154402E0,1.171345E0,1.3523861E-2,-8.789179E-3,5.225055E-1,2.3701142E-1,4.5E0,7.35E0,1.27E1,2.326132E1,2.008811E1,1.0879055E-2,-6.772374E-3,1.2165058E-2,3.48E1,1.7073102E-1,-1.2923147E-2,-8.305623E-3,-1.2353112E-2,8.546001E-3,-7.424746E-3,-1.01434E-2,1.1381776E-2,-9.940604E-3,4.3751528E-3,-5.0313585E-3,-1.1197383E-2,-6.781555E-4,-1.5520114E-3,-6.3122935E-3,-4.073812E-3,-9.0224035E-3,7.931662E-3,-1.2708904E-2,1.0472305E-2,-6.8012294E-3,1.008515E-3,-1.2531758E-2],"split_indices":[58,59,23,60,36,4,142,37,0,12,34,31,46,3,28,10,13,0,0,50,87,27,32,28,72,61,0,0,0,0,69,0,0,0,0,0,0,0,0,0,0,0,0,0,0,0,0,0,0,0,0,0,0],"split_type":[0,0,0,0,0,0,0,0,0,0,0,0,0,0,0,0,0,0,0,0,0,0,0,0,0,0,0,0,0,0,0,0,0,0,0,0,0,0,0,0,0,0,0,0,0,0,0,0,0,0,0,0,0],"sum_hessian":[6.558E3,4.481E3,2.077E3,9.74E2,3.507E3,1.907E3,1.7E2,9.67E2,7E0,3.13E3,3.77E2,1.797E3,1.1E2,5E0,1.65E2,9.47E2,2E1,5E0,2E0,3.02E3,1.1E2,1.73E2,2.04E2,1.093E3,7.04E2,1.08E2,2E0,1E0,4E0,3E0,1.62E2,8.49E2,9.8E1,1.1E1,9E0,8E2,2.22E3,3.4E1,7.6E1,1.09E2,6.4E1,1.88E2,1.6E1,7.75E2,3.18E2,3.72E2,3.32E2,1E0,1.07E2,2E0,1E0,4E0,1.58E2],"tree_param":{"num_deleted":"0","num_feature":"153","num_nodes":"53","size_leaf_vector":"0"}},{"base_weights":[-2.643348E-1,-3.420118E-1,-2.120206E-1,-3.5444373E-1,-1.7329735E-1,-1.0436366E-1,-2.3139532E-1,3.8877037E-1,-3.564225E-1,1.1880924E-1,-4.0642914E-1,-5.4885164E-2,-3.6680317E-1,-2.1794213E-1,-3.4151703E-1,-1.4982603E-1,-3.6324298E-1,3.0353102E-1,-3.4024885E-1,3.7715125E-1,-4.2587224E-1,1.5103348E-1,-1.4289854E-1,7.781863E-2,-4.030551E-1,-1.973255E-1,-3.0687657E-1,-6.6527575E-3,-3.5205242E-1,-3.6522362E-1,3.9986464E-1,-1.7777275E-1,-3.72878E-1,3.8847595E-1,-3.8298503E-1,1.6169041E-1,-4.19654E-1,4.7503535E-2,4.833104E-1,-2.910715E-1,-4.5059994E-2,3.9796636E-1,-3.4182066E-1,-4.1381884E-1,2.6669413E-1,-2.1623722E-1,-7.918762E-2,2.966466E-1,-3.173489E-1,3.093405E-1,-3.7420276E-1,1.1298988E-1,-3.5914022E-1],"categories":[],"categories_nodes":[],"categories_segments":[],"categories_sizes":[],"default_left":[false,false,true,false,false,false,false,false,false,false,false,false,false,false,false,false,false,false,false,false,false,false,false,false,false,false,false,false,false,false,false,false,false,false,false,false,false,false,false,false,false,false,false,false,false,false,false,false,false,false,false,false,false],"id":6,"left_children":[1,3,5,7,9,11,13,-1,15,17,19,21,23,25,27,29,31,33,35,-1,-1,37,39,41,43,45,47,49,51,-1,-1,-1,-1,-1,-1,-1,-1,-1,-1,-1,-1,-1,-1,-1,-1,-1,-1,-1,-1,-1,-1,-1,-1],"loss_changes":[2.6580719E1,5.4716187E0,8.156433E0,3.7505188E0,1.2510466E1,7.7709346E0,4.8485565E0,0E0,3.3978577E0,7.056715E0,1.714613E0,9.1921215E0,1.5626135E0,5.3740234E0,1.2677116E0,9.618202E0,4.1707153E0,3.589428E0,1.0244114E0,0E0,0E0,5.2059345E0,5.133329E0,1.2108057E0,7.447548E-1,5.3650436E0,3.6082191E0,1.509476E0,1.1909256E0,2.219139E0,1.6375072E0,4.7818685E0,2.0390015E0,1.5357647E0,0E0,3.8302708E-1,0E0,4.522999E0,8.722658E-1,4.58657E0,4.5590205E0,0E0,0E0,7.535639E-1,0E0,3.7714462E0,5.866834E0,1.2306995E0,2.9751968E0,5.832068E-1,0E0,8.3475846E-1,1.0689964E0],"parents":[2147483647,0,0,1,1,2,2,3,3,4,4,5,5,6,6,8,8,9,9,10,10,11,11,12,12,13,13,14,14,15,15,16,16,17,17,18,18,21,21,22,22,23,23,24,24,25,25,26,26,27,27,28,28],"right_children":[2,4,6,8,10,12,14,-1,16,18,20,22,24,26,28,30,32,34,36,-1,-1,38,40,42,44,46,48,50,52,-1,-1,-1,-1,-1,-1,-1,-1,-1,-1,-1,-1,-1,-1,-1,-1,-1,-1,-1,-1,-1,-1,-1,-1],"split_conditions":[1.4500531E0,1.0651926E0,-9.9E0,1.1583439E1,2.5795394E-1,8.612174E1,2.3554435E0,1.1663111E-2,-8.2134495E0,1.226886E0,9.9677074E-1,1.0086864E0,-5.73566E1,6.1827423E1,-3.478789E1,1.0210867E0,2.88E1,1.0345025E0,2.098176E-1,1.1314537E-2,-1.2776167E-2,9.961667E-1,1.0496612E0,2.13E1,1.0691322E1,8.08751E1,-4.3E0,7.7857494E-1,1.2337881E1,-1.0956708E-2,1.1995939E-2,-5.3331824E-3,-1.1186339E-2,1.1654278E-2,-1.1489551E-2,4.850712E-3,-1.258962E-2,1.425106E-3,1.4499311E-2,-8.732145E-3,-1.3517998E-3,1.193899E-2,-1.025462E-2,-1.2414564E-2,8.000824E-3,-6.487116E-3,-2.3756283E-3,8.899397E-3,-9.520466E-3,9.280215E-3,-1.1226082E-2,3.3896964E-3,-1.0774206E-2],"split_indices":[56,12,31,61,87,83,51,0,50,56,10,22,2,4,71,22,0,20,87,0,0,22,12,30,51,81,29,62,81,0,0,0,0,0,0,0,0,0,0,0,0,0,0,0,0,0,0,0,0,0,0,0,0],"split_type":[0,0,0,0,0,0,0,0,0,0,0,0,0,0,0,0,0,0,0,0,0,0,0,0,0,0,0,0,0,0,0,0,0,0,0,0,0,0,0,0,0,0,0,0,0,0,0,0,0,0,0,0,0],"sum_hessian":[6.558E3,2.637E3,3.921E3,2.455E3,1.82E2,5.99E2,3.322E3,6E0,2.449E3,8.1E1,1.01E2,5.05E2,9.4E1,2.963E3,3.59E2,7.9E1,2.37E3,5.8E1,2.3E1,2E0,9.9E1,1.51E2,3.54E2,7E0,8.7E1,2.408E3,5.55E2,1.1E1,3.48E2,5.7E1,2.2E1,1.18E2,2.252E3,5.2E1,6E0,3E0,2E1,1.16E2,3.5E1,1.4E2,2.14E2,4E0,3E0,8.6E1,1E0,2.075E3,3.33E2,9E0,5.46E2,6E0,5E0,5E0,3.43E2],"tree_param":{"num_deleted":"0","num_feature":"153","num_nodes":"53","size_leaf_vector":"0"}},{"base_weights":[-2.564091E-1,-2.9825455E-1,-1.6422409E-1,-3.8095582E-1,-2.7536654E-1,-1.3084595E-1,-2.702222E-1,-3.8562605E-1,2.3176473E-1,-3.6634567E-1,-2.589179E-1,-1.709291E-1,-2.1546382E-2,-1.5723342E-1,-3.205685E-1,-3.9699098E-1,-2.2429031E-1,4.4884747E-1,-2.796556E-1,3.1624117E-1,-3.8248852E-1,-1.18620455E-1,-2.7158266E-1,2.8333215E-2,-2.0484906E-1,1.7886166E-1,-1.1200123E-1,3.6351874E-1,-1.884716E-1,-1.21937014E-1,-3.4457988E-1,-4.0408272E-1,-2.1497385E-1,-3.8382897E-1,3.5916403E-2,4.583446E-1,-3.1021842E-1,1.9050948E-1,-3.8945302E-1,-3.4745347E-1,1.6823158E-2,-3.786829E-2,-2.7875426E-1,-2.3949395E-1,1.3522798E-1,-3.9203906E-1,-1.8012995E-1,3.0095863E-1,-1.783256E-1,1.51123E-1,-1.8421538E-1,4.636251E-1,-2.1866614E-1,-2.6780337E-1,-1.1914026E-2,-2.5841802E-1,2.8605163E-1,-2.1919055E-1,-3.921076E-1],"categories":[],"categories_nodes":[],"categories_segments":[],"categories_sizes":[],"default_left":[false,false,false,false,false,false,false,false,false,false,false,false,false,false,false,false,false,false,false,false,false,false,false,false,false,false,false,false,false,false,false,false,false,false,false,false,false,false,false,false,false,false,false,false,false,false,false,false,false,false,false,false,false,false,false,false,false,false,false],"id":7,"left_children":[1,3,5,7,9,11,13,15,17,19,21,23,25,27,29,31,33,-1,-1,35,37,39,41,43,45,47,49,51,53,55,57,-1,-1,-1,-1,-1,-1,-1,-1,-1,-1,-1,-1,-1,-1,-1,-1,-1,-1,-1,-1,-1,-1,-1,-1,-1,-1,-1,-1],"loss_changes":[2.5252502E1,8.431946E0,7.2175827E0,2.8793945E0,5.1967163E0,6.8351707E0,2.7369957E0,1.685852E0,1.0136869E0,6.06015E0,5.2947235E0,7.7245483E0,7.6337423E0,2.5574176E0,1.5700493E0,1.0787354E0,2.7536454E0,0E0,0E0,1.2994735E0,2.1772614E0,7.7543383E0,4.5970764E0,4.8134823E0,4.4454994E0,5.766773E0,5.5382137E0,6.259029E-1,2.0277696E0,2.1898637E0,1.7078514E0,2.0283508E-1,4.4262056E0,7.90493E-1,2.7727315E0,0E0,0E0,9.3800545E-1,1.4389038E0,3.85427E0,7.1534653E0,4.5595794E0,4.524048E0,2.432087E0,4.405758E0,3.268713E0,6.0155735E0,4.6390142E0,2.6849542E0,5.451067E0,5.2026696E0,0E0,0E0,1.2775073E0,2.1820588E0,2.7711992E0,1.1763692E0,2.2908783E0,7.601929E-1],"parents":[2147483647,0,0,1,1,2,2,3,3,4,4,5,5,6,6,7,7,8,8,9,9,10,10,11,11,12,12,13,13,14,14,15,15,16,16,19,19,20,20,21,21,22,22,23,23,24,24,25,25,26,26,27,27,28,28,29,29,30,30],"right_children":[2,4,6,8,10,12,14,16,18,20,22,24,26,28,30,32,34,-1,-1,36,38,40,42,44,46,48,50,52,54,56,58,-1,-1,-1,-1,-1,-1,-1,-1,-1,-1,-1,-1,-1,-1,-1,-1,-1,-1,-1,-1,-1,-1,-1,-1,-1,-1,-1,-1],"split_conditions":[2.2894173E0,1.2534817E0,1.3785325E0,1.4641005E0,3.26E1,8.0274624E-1,4.6434753E1,3.69E1,3.68E1,-1.487E1,2.93E1,1.6547346E1,2.3937668E1,-2.43E0,5.4982895E-1,6.0921787E1,1.2337956E0,1.3465424E-2,-8.389668E-3,9.79967E-1,1.0011939E0,-7.390514E-1,-2E0,2.2872226E0,2.045E1,2.4068707E1,9.5185244E-1,1.1655633E0,-6.31E0,4.43301E0,2.5361931E0,-1.2122481E-2,-6.4492156E-3,-1.1514869E-2,1.077492E-3,1.3750338E-2,-9.306553E-3,5.7152845E-3,-1.1683591E-2,-1.0423604E-2,5.046947E-4,-1.1360487E-3,-8.362628E-3,-7.1848184E-3,4.0568393E-3,-1.1761172E-2,-5.403898E-3,9.028759E-3,-5.349768E-3,4.53369E-3,-5.526461E-3,1.3908753E-2,-6.559984E-3,-8.034101E-3,-3.5742077E-4,-7.7525405E-3,8.581549E-3,-6.5757167E-3,-1.1763228E-2],"split_indices":[59,59,51,60,1,64,88,31,0,43,0,61,61,32,64,71,60,0,0,10,22,92,23,60,37,49,22,9,39,75,56,0,0,0,0,0,0,0,0,0,0,0,0,0,0,0,0,0,0,0,0,0,0,0,0,0,0,0,0],"split_type":[0,0,0,0,0,0,0,0,0,0,0,0,0,0,0,0,0,0,0,0,0,0,0,0,0,0,0,0,0,0,0,0,0,0,0,0,0,0,0,0,0,0,0,0,0,0,0,0,0,0,0,0,0,0,0,0,0,0,0],"sum_hessian":[6.558E3,4.509E3,2.049E3,9.74E2,3.535E3,1.56E3,4.89E2,9.67E2,7E0,5.38E2,2.997E3,1.141E3,4.19E2,1.52E2,3.37E2,9.02E2,6.5E1,5E0,2E0,1.2E1,5.26E2,2.49E2,2.748E3,1.66E2,9.75E2,1.3E2,2.89E2,8E0,1.44E2,3.7E1,3E2,8.67E2,3.5E1,4E1,2.5E1,1E1,2E0,6E0,5.2E2,9.2E1,1.57E2,8.2E1,2.666E3,4.7E1,1.19E2,1.12E2,8.63E2,9.7E1,3.3E1,6.2E1,2.27E2,7E0,1E0,9.9E1,4.5E1,2.8E1,9E0,8.4E1,2.16E2],"tree_param":{"num_deleted":"0","num_feature":"153","num_nodes":"59","size_leaf_vector":"0"}},{"base_weights":[-2.487292E-1,-2.8981063E-1,-1.6000172E-1,-3.6955166E-1,-2.675651E-1,-1.432407E-1,-3.460836E-1,-3.7408724E-1,2.2544625E-1,-2.8113747E-1,-1.544364E-1,-1.2907246E-1,-3.714503E-1,2.5660813E-1,-3.6578283E-1,-3.8510182E-1,-2.1771975E-1,4.3762624E-1,-2.7406248E-1,-2.879224E-1,-9.394423E-2,4.1264124E-2,-3.1978983E-1,-8.60449E-2,-1.956584E-1,-3.8812208E-1,3.581083E-1,-2.1641411E-1,3.9449543E-1,1.4949806E-1,-3.761837E-1,-3.9564523E-1,-2.6686165E-1,-3.7259492E-1,3.488036E-2,-2.2515576E-1,-3.1042948E-1,3.7290516E-1,-3.0492845E-1,1.5275034E-1,-1.480397E-1,-1.4745165E-2,-3.4729522E-1,-4.1421343E-2,-1.9432652E-1,-3.057617E-1,-1.3744941E-1,-3.9674526E-1,2.7159095E-1,3.433617E-1,-2.1604642E-1,4.4180732E-2,-3.8703674E-1],"categories":[],"categories_nodes":[],"categories_segments":[],"categories_sizes":[],"default_left":[false,false,false,false,false,false,false,false,false,false,false,false,false,false,false,false,false,false,false,false,false,false,false,false,false,false,false,false,false,false,false,false,false,false,false,false,false,false,false,false,false,false,false,false,false,false,false,false,false,false,false,false,false],"id":8,"left_children":[1,3,5,7,9,11,13,15,17,19,21,23,25,27,29,31,33,-1,-1,35,37,39,41,43,45,47,-1,-1,-1,49,51,-1,-1,-1,-1,-1,-1,-1,-1,-1,-1,-1,-1,-1,-1,-1,-1,-1,-1,-1,-1,-1,-1],"loss_changes":[2.3861511E1,7.8516846E0,6.4315414E0,2.7155304E0,5.3428345E0,6.12125E0,2.1240673E0,1.5833588E0,9.67823E-1,3.9496155E0,1.2245181E1,5.134487E0,1.489089E0,4.7671685E-1,9.4589424E-1,1.0201416E0,2.5950143E0,0E0,0E0,4.1978455E0,1.104697E1,3.6948426E0,1.7149067E0,5.278061E0,4.4763184E0,7.278347E-1,0E0,0E0,0E0,3.5764518E-1,7.60746E-1,2.9270935E-1,7.5251684E0,7.8425264E-1,2.7732909E0,5.1235733E0,4.092163E0,2.3465757E0,2.772049E0,6.133415E0,1.9627805E0,2.2201507E0,1.991602E0,9.104767E0,5.4219627E0,3.9305E0,8.557933E0,7.3519325E-1,0E0,0E0,0E0,6.014945E-1,7.480545E-1],"parents":[2147483647,0,0,1,1,2,2,3,3,4,4,5,5,6,6,7,7,8,8,9,9,10,10,11,11,12,12,13,13,14,14,15,15,16,16,19,19,20,20,21,21,22,22,23,23,24,24,25,25,29,29,30,30],"right_children":[2,4,6,8,10,12,14,16,18,20,22,24,26,28,30,32,34,-1,-1,36,38,40,42,44,46,48,-1,-1,-1,50,52,-1,-1,-1,-1,-1,-1,-1,-1,-1,-1,-1,-1,-1,-1,-1,-1,-1,-1,-1,-1,-1,-1],"split_conditions":[2.193677E0,1.2534817E0,3.1E0,1.4641005E0,5.53E1,6.509203E1,0E0,3.69E1,3.68E1,1.0708493E0,1.432E1,2.76E1,4.7742798E1,2.5453035E1,-1.86E1,1.0154402E0,1.2337956E0,1.3128787E-2,-8.221874E-3,5.225055E-1,2.3701142E-1,4.5E0,9.9738944E-1,1.27E1,9.9561095E-1,1.0371927E0,1.0743249E-2,-6.492423E-3,1.1834863E-2,3.48E1,1.7073102E-1,-1.1869357E-2,-8.005849E-3,-1.1177847E-2,1.0464108E-3,-6.7546726E-3,-9.312884E-3,1.1187155E-2,-9.147854E-3,4.5825103E-3,-4.441191E-3,-4.4235494E-4,-1.04188565E-2,-1.2426402E-3,-5.8297953E-3,-9.17285E-3,-4.1234824E-3,-1.1902357E-2,8.147729E-3,1.03008505E-2,-6.4813923E-3,1.325422E-3,-1.1611102E-2],"split_indices":[58,59,23,60,36,4,142,31,0,12,34,31,46,3,28,10,60,0,0,50,87,27,10,28,20,5,0,0,0,0,69,0,0,0,0,0,0,0,0,0,0,0,0,0,0,0,0,0,0,0,0,0,0],"split_type":[0,0,0,0,0,0,0,0,0,0,0,0,0,0,0,0,0,0,0,0,0,0,0,0,0,0,0,0,0,0,0,0,0,0,0,0,0,0,0,0,0,0,0,0,0,0,0,0,0,0,0,0,0],"sum_hessian":[6.558E3,4.481E3,2.077E3,9.74E2,3.507E3,1.907E3,1.7E2,9.67E2,7E0,3.13E3,3.77E2,1.797E3,1.1E2,5E0,1.65E2,9.02E2,6.5E1,5E0,2E0,3.02E3,1.1E2,1.73E2,2.04E2,1.093E3,7.04E2,1.08E2,2E0,1E0,4E0,3E0,1.62E2,8.26E2,7.6E1,4E1,2.5E1,8E2,2.22E3,3.4E1,7.6E1,1.09E2,6.4E1,1.7E1,1.87E2,7.75E2,3.18E2,2.42E2,4.62E2,1.07E2,1E0,2E0,1E0,4E0,1.58E2],"tree_param":{"num_deleted":"0","num_feature":"153","num_nodes":"53","size_leaf_vector":"0"}},{"base_weights":[-2.4127713E-1,-3.0105525E-1,-1.8332776E-1,-1.5015954E-1,-3.123689E-1,-1.2949769E-1,-2.2210416E-1,-2.0069505E-1,3.0679443E-1,-3.2402977E-1,-1.8922704E-1,-2.9847905E-1,-1.0617465E-1,-3.117857E-1,-1.9006754E-1,-2.252998E-1,4.3335927E-1,-3.5996404E-1,4.661101E-1,-2.1635796E-1,-3.3777657E-1,-2.5865832E-1,2.1440963E-1,2.3417155E-1,-3.3704442E-1,-7.107496E-2,-2.4417351E-1,4.1485015E-2,-3.2410157E-1,-9.724784E-2,-2.2193468E-1,-2.5453785E-1,3.4982955E-1,-4.2002857E-2,-3.4495366E-1,-3.4573433E-1,-1.6530192E-1,6.193679E-2,-3.1635395E-1,5.334568E-1,-3.934215E-1,4.4843328E-1,-3.0646017E-1,2.9147118E-1,-3.594892E-1,-2.9337907E-2,-1.8389055E-1,4.3297097E-1,-2.598239E-1,3.314685E-1,-3.624279E-1,1.9547606E-1,-3.3201998E-1,-1.2822857E-1,3.3169767E-1,1.2341329E-1,-2.3311904E-1],"categories":[],"categories_nodes":[],"categories_segments":[],"categories_sizes":[],"default_left":[false,false,false,false,false,false,false,false,false,false,false,false,false,false,false,false,false,false,false,false,true,false,false,false,false,false,false,false,false,false,false,false,false,false,false,false,false,false,false,false,false,false,false,false,false,false,false,false,false,false,false,false,false,false,false,false,false],"id":9,"left_children":[1,3,5,7,9,11,13,15,17,19,21,23,25,27,29,31,-1,-1,-1,33,35,37,39,41,43,45,47,49,51,53,55,-1,-1,-1,-1,-1,-1,-1,-1,-1,-1,-1,-1,-1,-1,-1,-1,-1,-1,-1,-1,-1,-1,-1,-1,-1,-1],"loss_changes":[2.2665863E1,5.462158E0,6.928337E0,5.303549E0,4.2479553E0,5.47805E0,5.503044E0,3.2957888E0,2.61096E0,3.9825134E0,7.3980093E0,3.5505018E0,5.9404154E0,2.223671E0,4.2052536E0,3.4185476E0,0E0,0E0,0E0,7.0033817E0,3.275299E0,4.1629076E0,7.7730184E0,1.527467E0,2.3336697E0,4.61844E0,2.7512913E0,2.2284386E0,2.0849915E0,4.9196124E0,4.1346054E0,1.9750881E0,5.389719E-1,4.1363E0,2.1433525E0,2.252716E0,5.520671E0,4.4507875E0,2.3067589E0,0E0,0E0,0E0,0E0,5.093116E-1,1.3848362E0,5.2600684E0,5.0854053E0,0E0,1.761961E0,1.2629759E0,0E0,8.840978E-1,1.4033966E0,4.3144617E0,1.5279624E0,1.8373659E0,4.55534E0],"parents":[2147483647,0,0,1,1,2,2,3,3,4,4,5,5,6,6,7,7,8,8,9,9,10,10,11,11,12,12,13,13,14,14,15,15,19,19,20,20,21,21,22,22,23,23,24,24,25,25,26,26,27,27,28,28,29,29,30,30],"right_children":[2,4,6,8,10,12,14,16,18,20,22,24,26,28,30,32,-1,-1,-1,34,36,38,40,42,44,46,48,50,52,54,56,-1,-1,-1,-1,-1,-1,-1,-1,-1,-1,-1,-1,-1,-1,-1,-1,-1,-1,-1,-1,-1,-1,-1,-1,-1,-1],"split_conditions":[1.6375543E0,2.87E1,1.14E1,1.067764E0,5.53E1,4.9171504E-1,1.9936883E0,1.0596578E0,8.2017606E-1,-4.8545074E-2,1.8589262E0,1.6152191E1,1.6010172E0,-7.857143E1,-3.4275665E0,4.1112564E1,1.3000778E-2,-1.0798921E-2,1.3983303E-2,1.7598091E0,3.69E1,5.70726E1,1.0399429E0,-2.7E0,9.7321147E-1,9.735E1,-7.3E0,1.9087343E1,1.1583439E1,1.103617E0,2.74E1,-7.6361354E-3,1.0494886E-2,-1.2600857E-3,-1.034861E-2,-1.037203E-2,-4.9590576E-3,1.8581036E-3,-9.4906185E-3,1.6003704E-2,-1.18026445E-2,1.3452998E-2,-9.193805E-3,8.7441355E-3,-1.0784676E-2,-8.801372E-4,-5.5167163E-3,1.2989129E-2,-7.7947164E-3,9.944054E-3,-1.0872836E-2,5.8642817E-3,-9.960599E-3,-3.8468572E-3,9.95093E-3,3.7023986E-3,-6.9935713E-3],"split_indices":[56,0,31,22,36,64,59,7,9,50,60,65,51,68,2,44,0,0,0,60,31,4,12,27,11,36,24,2,61,63,0,0,0,0,0,0,0,0,0,0,0,0,0,0,0,0,0,0,0,0,0,0,0,0,0,0,0],"split_type":[0,0,0,0,0,0,0,0,0,0,0,0,0,0,0,0,0,0,0,0,0,0,0,0,0,0,0,0,0,0,0,0,0,0,0,0,0,0,0,0,0,0,0,0,0,0,0,0,0,0,0,0,0,0,0,0,0],"sum_hessian":[6.558E3,3.226E3,3.332E3,2.26E2,3E3,1.397E3,1.935E3,2.04E2,2.2E1,2.739E3,2.61E2,1.68E2,1.229E3,5.07E2,1.428E3,1.97E2,7E0,4E0,1.8E1,3.12E2,2.427E3,2.23E2,3.8E1,1.1E1,1.57E2,9.81E2,2.48E2,1.7E1,4.9E2,3.66E2,1.062E3,1.88E2,9E0,1.33E2,1.79E2,2.319E3,1.08E2,3.4E1,1.89E2,2.5E1,1.3E1,8E0,3E0,5E0,1.52E2,7.17E2,2.64E2,5E0,2.43E2,1E1,7E0,7E0,4.83E2,3.42E2,2.4E1,3.3E1,1.029E3],"tree_param":{"num_deleted":"0","num_feature":"153","num_nodes":"57","size_leaf_vector":"0"}},{"base_weights":[-2.3404072E-1,-3.0367407E-1,-1.8714455E-1,-3.153244E-1,-1.4565818E-1,-8.821639E-2,-2.0495068E-1,3.928112E-1,-3.1721896E-1,1.6033971E-1,-3.455878E-1,-4.1387968E-2,-3.3671072E-1,-1.796219E-1,-2.566044E-1,-1.2674141E-1,-3.2351208E-1,3.3752066E-1,-2.944665E-1,3.8180527E-1,-3.6243725E-1,1.5227664E-1,-1.24192566E-1,7.908845E-2,-3.7068442E-1,-2.0935506E-1,-8.8257805E-2,3.9740992E-1,-2.6302212E-1,-3.3504465E-1,4.0405557E-1,-1.5357114E-1,-3.323445E-1,4.3248606E-1,-3.4832135E-1,1.7026883E-1,-3.8138175E-1,3.628093E-1,-3.79384E-1,5.9811223E-2,4.8390007E-1,-3.4935182E-1,-6.5673776E-2,3.8557342E-1,-3.2378986E-1,2.664467E-1,-3.8107035E-1,3.30883E-1,-2.1506287E-1,1.3767464E-1,-1.8048526E-1,-2.1453267E-1,4.8005742E-1,-1.5090929E-1,-3.0240247E-1],"categories":[],"categories_nodes":[],"categories_segments":[],"categories_sizes":[],"default_left":[false,false,true,false,false,false,false,false,false,false,false,false,false,false,false,false,false,false,false,false,false,false,false,false,false,false,false,false,false,false,false,false,false,false,false,false,false,false,false,false,false,false,false,false,false,false,false,false,false,false,false,false,false,false,false],"id":10,"left_children":[1,3,5,7,9,11,13,-1,15,17,19,21,23,25,27,29,31,33,35,-1,37,39,41,43,45,47,49,51,53,-1,-1,-1,-1,-1,-1,-1,-1,-1,-1,-1,-1,-1,-1,-1,-1,-1,-1,-1,-1,-1,-1,-1,-1,-1,-1],"loss_changes":[2.1361847E1,4.8104706E0,6.8906403E0,3.4195557E0,1.1250993E1,6.9680223E0,4.301468E0,0E0,2.895813E0,5.981948E0,1.4988165E0,8.13329E0,1.3713083E0,6.0475616E0,4.6837616E0,8.980715E0,3.5077972E0,3.6026006E0,9.131819E-1,0E0,1.4773159E0,4.6319394E0,4.6545534E0,1.1126539E0,6.838503E-1,5.2639084E0,1.1485294E1,6.5931904E-1,4.727028E0,2.1703472E0,1.637718E0,4.5023117E0,1.8131409E0,1.5830479E0,0E0,3.6983332E-1,0E0,0E0,5.8870316E-2,4.8855615E0,0E0,1.3899336E0,5.633752E0,0E0,0E0,0E0,6.873808E-1,1.4139857E0,3.4399872E0,5.260948E0,3.6233044E0,0E0,0E0,9.333893E0,5.0714035E0],"parents":[2147483647,0,0,1,1,2,2,3,3,4,4,5,5,6,6,8,8,9,9,10,10,11,11,12,12,13,13,14,14,15,15,16,16,17,17,18,18,20,20,21,21,22,22,23,23,24,24,25,25,26,26,27,27,28,28],"right_children":[2,4,6,8,10,12,14,-1,16,18,20,22,24,26,28,30,32,34,36,-1,38,40,42,44,46,48,50,52,54,-1,-1,-1,-1,-1,-1,-1,-1,-1,-1,-1,-1,-1,-1,-1,-1,-1,-1,-1,-1,-1,-1,-1,-1,-1,-1],"split_conditions":[1.4500531E0,1.0651926E0,-9.9E0,1.1583439E1,2.5130326E-1,8.612174E1,6.428571E1,1.1784336E-2,-8.2134495E0,1.226886E0,-1.2E0,1.0086864E0,-5.73566E1,5.4E1,3.5902245E1,1.0210867E0,2.88E1,1.0345025E0,2.098176E-1,1.14541575E-2,2.224E1,-1.903E1,5.02E0,2.13E1,-3.3540788E-1,8.150915E-1,1.1059154E0,3.13E1,3.22E1,-1.0051339E-2,1.2121667E-2,-4.607134E-3,-9.970335E-3,1.2974582E-2,-1.044964E-2,5.108065E-3,-1.1441452E-2,1.0884278E-2,-1.138152E-2,1.7943367E-3,1.4517002E-2,-1.0480555E-2,-1.9702131E-3,1.1567202E-2,-9.713695E-3,7.993401E-3,-1.143211E-2,9.92649E-3,-6.451886E-3,4.130239E-3,-5.4145576E-3,-6.43598E-3,1.4401722E-2,-4.5272787E-3,-9.072074E-3],"split_indices":[56,12,31,61,87,83,68,0,50,56,27,22,2,36,4,22,0,20,87,0,35,43,34,30,87,13,22,0,0,0,0,0,0,0,0,0,0,0,0,0,0,0,0,0,0,0,0,0,0,0,0,0,0,0,0],"split_type":[0,0,0,0,0,0,0,0,0,0,0,0,0,0,0,0,0,0,0,0,0,0,0,0,0,0,0,0,0,0,0,0,0,0,0,0,0,0,0,0,0,0,0,0,0,0,0,0,0,0,0,0,0,0,0],"sum_hessian":[6.558E3,2.637E3,3.921E3,2.455E3,1.82E2,5.99E2,3.322E3,6E0,2.449E3,7.2E1,1.1E2,5.05E2,9.4E1,2.232E3,1.09E3,7.9E1,2.37E3,5.2E1,2E1,2E0,1.08E2,1.51E2,3.54E2,7E0,8.7E1,1.683E3,5.49E2,1E1,1.08E3,5.7E1,2.2E1,1.18E2,2.252E3,4.6E1,6E0,3E0,1.7E1,2E0,1.06E2,1.19E2,3.2E1,7.2E1,2.82E2,4E0,3E0,1E0,8.6E1,1.7E1,1.666E3,1.59E2,3.9E2,1E0,9E0,2.82E2,7.98E2],"tree_param":{"num_deleted":"0","num_feature":"153","num_nodes":"55","size_leaf_vector":"0"}},{"base_weights":[-2.2701871E-1,-2.6450792E-1,-1.4443173E-1,-3.3885494E-1,-2.43933E-1,-1.1306566E-1,-2.440603E-1,-3.432648E-1,2.370958E-1,-3.3174762E-1,-2.2806376E-1,-1.5166765E-1,-7.835804E-3,-1.373047E-1,-2.916625E-1,-3.5834813E-1,-2.3771083E-1,4.4363758E-1,-2.5501966E-1,3.0115268E-1,-3.4673044E-1,-2.154028E-1,-3.5214975E-1,3.815435E-2,-1.8399204E-1,1.8374723E-1,-9.435147E-2,3.5721025E-1,-1.6705179E-1,-1.0170915E-1,-3.1467435E-1,-3.6557484E-1,-2.0377168E-1,1.8869317E-1,-3.1666672E-1,4.3491274E-1,-2.8968513E-1,1.9008906E-1,-3.5327747E-1,-5.3633846E-2,-2.3030582E-1,3.741692E-1,-3.5881692E-1,-2.1724103E-1,1.3999455E-1,-2.1364361E-1,-3.587791E-2,3.0105478E-1,-1.5977883E-1,1.5574002E-1,-1.6304187E-1,4.5288077E-1,-2.0407699E-1,-6.901431E-2,-3.0478796E-1,-2.3355389E-1,2.9081148E-1,-1.9516946E-1,-3.600349E-1],"categories":[],"categories_nodes":[],"categories_segments":[],"categories_sizes":[],"default_left":[false,false,false,false,false,false,false,false,false,false,false,false,false,false,false,false,false,false,false,false,false,false,false,false,false,false,false,false,false,false,false,false,false,false,false,false,false,false,false,false,false,false,false,false,false,false,false,false,false,false,false,false,false,false,false,false,false,false,false],"id":11,"left_children":[1,3,5,7,9,11,13,15,17,19,21,23,25,27,29,31,33,-1,-1,35,37,39,41,43,45,47,49,51,53,55,57,-1,-1,-1,-1,-1,-1,-1,-1,-1,-1,-1,-1,-1,-1,-1,-1,-1,-1,-1,-1,-1,-1,-1,-1,-1,-1,-1,-1],"loss_changes":[2.0269257E1,6.8161926E0,6.3785667E0,2.5577545E0,4.8519287E0,6.33972E0,2.450035E0,1.4559784E0,9.262755E-1,5.215561E0,4.6341553E0,7.0141945E0,6.9788094E0,2.3103619E0,1.4454536E0,8.694382E-1,4.234474E0,0E0,0E0,1.1533843E0,1.919342E0,6.552376E0,1.4707909E0,4.374002E0,4.2787514E0,5.3271666E0,5.0072694E0,5.757104E-1,1.9369454E0,2.0344877E0,1.5613937E0,2.6853943E-1,1.9302938E0,3.3153727E0,1.9041948E0,0E0,0E0,8.791833E-1,1.4066772E0,4.952787E0,4.095932E0,0E0,3.62751E-1,2.416419E0,4.331234E0,3.3779144E0,3.9986691E0,4.506336E0,2.6565318E0,5.3849053E0,5.0529094E0,0E0,0E0,2.1203785E0,1.1894951E0,2.5903423E0,1.1497226E0,2.265564E0,7.414074E-1],"parents":[2147483647,0,0,1,1,2,2,3,3,4,4,5,5,6,6,7,7,8,8,9,9,10,10,11,11,12,12,13,13,14,14,15,15,16,16,19,19,20,20,21,21,22,22,23,23,24,24,25,25,26,26,27,27,28,28,29,29,30,30],"right_children":[2,4,6,8,10,12,14,16,18,20,22,24,26,28,30,32,34,-1,-1,36,38,40,42,44,46,48,50,52,54,56,58,-1,-1,-1,-1,-1,-1,-1,-1,-1,-1,-1,-1,-1,-1,-1,-1,-1,-1,-1,-1,-1,-1,-1,-1,-1,-1,-1,-1],"split_conditions":[2.2894173E0,1.2534817E0,1.3785325E0,1.4641005E0,3.26E1,8.0274624E-1,4.6434753E1,9.236E1,3.68E1,-1.487E1,1.0444171E0,1.6547346E1,2.3937668E1,-2.43E0,5.4982895E-1,1.3169733E0,1.0359E2,1.3309127E-2,-7.6505896E-3,9.79967E-1,1.0011939E0,2.99E1,1.6078318E1,2.2872226E0,3.5346084E0,2.4068707E1,9.5185244E-1,1.1655633E0,2.9311905E0,4.43301E0,2.5361931E0,-1.0967244E-2,-6.11315E-3,5.6607947E-3,-9.500002E-3,1.3047382E-2,-8.690554E-3,5.7026716E-3,-1.0598324E-2,-1.6090154E-3,-6.9091744E-3,1.1225075E-2,-1.0764508E-2,-6.517231E-3,4.1998364E-3,-6.409308E-3,-1.0763373E-3,9.031643E-3,-4.793365E-3,4.6722004E-3,-4.8912563E-3,1.3586422E-2,-6.1223097E-3,-2.0704293E-3,-9.143638E-3,-7.0066163E-3,8.724344E-3,-5.855084E-3,-1.0801047E-2],"split_indices":[59,59,51,60,1,64,88,37,0,43,11,61,61,32,64,57,37,0,0,10,22,0,46,60,58,49,22,9,60,75,56,0,0,0,0,0,0,0,0,0,0,0,0,0,0,0,0,0,0,0,0,0,0,0,0,0,0,0,0],"split_type":[0,0,0,0,0,0,0,0,0,0,0,0,0,0,0,0,0,0,0,0,0,0,0,0,0,0,0,0,0,0,0,0,0,0,0,0,0,0,0,0,0,0,0,0,0,0,0,0,0,0,0,0,0,0,0,0,0,0,0],"sum_hessian":[6.558E3,4.509E3,2.049E3,9.74E2,3.535E3,1.56E3,4.89E2,9.67E2,7E0,5.38E2,2.997E3,1.141E3,4.19E2,1.52E2,3.37E2,8.44E2,1.23E2,5E0,2E0,1.2E1,5.26E2,2.722E3,2.75E2,1.66E2,9.75E2,1.3E2,2.89E2,8E0,1.44E2,3.7E1,3E2,8.05E2,3.9E1,1.9E1,1.04E2,1E1,2E0,6E0,5.2E2,2.3E2,2.492E3,2E0,2.73E2,4.7E1,1.19E2,8.12E2,1.63E2,9.7E1,3.3E1,6.2E1,2.27E2,7E0,1E0,8.5E1,5.9E1,2.8E1,9E0,8.4E1,2.16E2],"tree_param":{"num_deleted":"0","num_feature":"153","num_nodes":"59","size_leaf_vector":"0"}},{"base_weights":[-2.2021551E-1,-2.7532914E-1,-1.667886E-1,-1.3656604E-1,-2.8573364E-1,-1.1639439E-1,-2.0309249E-1,-1.8549474E-1,3.0547512E-1,-2.9676533E-1,-1.6927357E-1,-2.7695113E-1,-9.4239525E-2,-2.87978E-1,-1.7277412E-1,-2.1170115E-1,3.4670067E-1,-3.394992E-1,4.5912758E-1,-1.9540982E-1,-3.0970913E-1,-2.3620926E-1,2.1951798E-1,2.2382778E-1,-3.1323212E-1,-6.1033867E-2,-2.248167E-1,5.1374275E-2,-2.998321E-1,-8.305984E-2,-2.0358539E-1,2.890833E-1,-2.4304014E-1,4.2964655E-1,-1.999062E-1,-2.891777E-2,-3.182683E-1,-3.1737894E-1,-1.4362021E-1,7.069564E-2,-2.9150116E-1,5.2803856E-1,-3.6912867E-1,4.25157E-1,-2.8511995E-1,2.887668E-1,-3.3479267E-1,-4.099733E-2,-2.8954014E-1,4.1598648E-1,-2.3965277E-1,3.321399E-1,-3.4110028E-1,2.0301834E-1,-3.0752417E-1,-4.03348E-1,-4.1540932E-2,1.2768878E-1,-2.1432298E-1],"categories":[],"categories_nodes":[],"categories_segments":[],"categories_sizes":[],"default_left":[false,false,false,false,false,false,false,false,false,false,false,false,false,false,false,false,false,false,false,false,true,false,false,false,false,false,false,false,false,false,false,false,false,false,false,false,false,false,false,false,false,false,false,false,false,false,false,false,false,false,false,false,false,false,false,false,false,false,false],"id":12,"left_children":[1,3,5,7,9,11,13,15,17,19,21,23,25,27,29,31,33,-1,-1,35,37,39,41,43,45,47,49,51,53,55,57,-1,-1,-1,-1,-1,-1,-1,-1,-1,-1,-1,-1,-1,-1,-1,-1,-1,-1,-1,-1,-1,-1,-1,-1,-1,-1,-1,-1],"loss_changes":[1.9267395E1,4.619995E0,6.0741043E0,4.9663324E0,3.805313E0,4.946745E0,4.9327164E0,2.9325185E0,2.4352167E0,3.5341492E0,6.870148E0,3.1406288E0,5.319435E0,2.058941E0,3.9331474E0,3.1462984E0,5.3927684E-1,0E0,0E0,6.3932E0,3.0473785E0,3.821744E0,7.277688E0,1.3508134E0,2.1474247E0,4.4841924E0,2.466936E0,2.0967736E0,1.9616089E0,4.863616E0,3.8085556E0,1.0722173E0,2.01682E0,0E0,0E0,4.0272336E0,2.1112404E0,2.0881958E0,5.484708E0,4.323888E0,2.2063732E0,0E0,0E0,0E0,0E0,4.942506E-1,1.365902E0,5.7191772E0,2.0649672E0,0E0,1.6963129E0,1.2470915E0,0E0,8.812621E-1,1.4159546E0,7.473736E-1,4.949822E0,1.831466E0,4.4733696E0],"parents":[2147483647,0,0,1,1,2,2,3,3,4,4,5,5,6,6,7,7,8,8,9,9,10,10,11,11,12,12,13,13,14,14,15,15,16,16,19,19,20,20,21,21,22,22,23,23,24,24,25,25,26,26,27,27,28,28,29,29,30,30],"right_children":[2,4,6,8,10,12,14,16,18,20,22,24,26,28,30,32,34,-1,-1,36,38,40,42,44,46,48,50,52,54,56,58,-1,-1,-1,-1,-1,-1,-1,-1,-1,-1,-1,-1,-1,-1,-1,-1,-1,-1,-1,-1,-1,-1,-1,-1,-1,-1,-1,-1],"split_conditions":[1.6375543E0,2.87E1,1.14E1,1.067764E0,5.53E1,4.9171504E-1,1.9936883E0,4.1112564E1,8.2017606E-1,-4.8545074E-2,1.8589262E0,1.6152191E1,1.6010172E0,-7.857143E1,-3.4275665E0,-5.9E0,7.8356E1,-1.0184976E-2,1.3773827E-2,1.7598091E0,3.69E1,5.70726E1,1.0399429E0,-2.7E0,9.7321147E-1,3.652E1,-7.3E0,1.9087343E1,1.1583439E1,7.3057723E0,2.74E1,8.672499E-3,-7.2912043E-3,1.2889396E-2,-5.997186E-3,-8.675331E-4,-9.5480485E-3,-9.521368E-3,-4.308606E-3,2.120869E-3,-8.745035E-3,1.5841156E-2,-1.107386E-2,1.275471E-2,-8.553598E-3,8.663004E-3,-1.004378E-2,-1.2299198E-3,-8.686204E-3,1.2479594E-2,-7.189583E-3,9.964197E-3,-1.0233008E-2,6.09055E-3,-9.225725E-3,-1.21004395E-2,-1.2462279E-3,3.8306634E-3,-6.4296895E-3],"split_indices":[56,0,31,22,36,64,59,44,9,50,60,65,51,68,2,28,3,0,0,60,31,4,12,27,11,34,24,2,61,90,0,0,0,0,0,0,0,0,0,0,0,0,0,0,0,0,0,0,0,0,0,0,0,0,0,0,0,0,0],"split_type":[0,0,0,0,0,0,0,0,0,0,0,0,0,0,0,0,0,0,0,0,0,0,0,0,0,0,0,0,0,0,0,0,0,0,0,0,0,0,0,0,0,0,0,0,0,0,0,0,0,0,0,0,0,0,0,0,0,0,0],"sum_hessian":[6.558E3,3.226E3,3.332E3,2.26E2,3E3,1.397E3,1.935E3,2.04E2,2.2E1,2.739E3,2.61E2,1.68E2,1.229E3,5.07E2,1.428E3,1.95E2,9E0,4E0,1.8E1,3.12E2,2.427E3,2.23E2,3.8E1,1.1E1,1.57E2,9.81E2,2.48E2,1.7E1,4.9E2,3.66E2,1.062E3,1.1E1,1.84E2,8E0,1E0,1.33E2,1.79E2,2.319E3,1.08E2,3.4E1,1.89E2,2.5E1,1.3E1,8E0,3E0,5E0,1.52E2,9.03E2,7.8E1,5E0,2.43E2,1E1,7E0,7E0,4.83E2,4.1E1,3.25E2,3.3E1,1.029E3],"tree_param":{"num_deleted":"0","num_feature":"153","num_nodes":"59","size_leaf_vector":"0"}},{"base_weights":[-2.1361445E-1,-2.670737E-1,-1.617913E-1,-1.3241681E-1,-2.7717033E-1,-1.4011087E-1,-2.416894E-1,-1.7988954E-1,2.9646692E-1,-2.878712E-1,-1.6420244E-1,-7.866002E-2,-1.7945322E-1,1.3119496E-2,-2.6101297E-1,-2.0534308E-1,3.3698887E-1,-3.3135122E-1,4.460787E-1,-1.895808E-1,-3.0042353E-1,-2.2915255E-1,2.1305467E-1,-8.9088105E-2,4.246406E-1,-3.3723277E-1,-1.5932663E-1,4.4947135E-1,-6.651538E-2,-2.1862288E-1,-3.301042E-1,-2.330188E-1,3.3272704E-1,4.1818932E-1,-1.9690761E-1,-2.8056702E-2,-3.0877328E-1,-3.078617E-1,-1.3935113E-1,6.8635345E-2,-2.8280216E-1,5.1280665E-1,-3.588458E-1,-2.689236E-1,-6.3033335E-2,5.610401E-1,-2.9531717E-1,4.102318E-1,-3.4793591E-1,-2.645944E-1,-1.3528109E-1,2.0818008E-1,-2.0164593E-1,-2.523207E-1,-7.1092166E-2,1.8801537E-1,-3.3718702E-1],"categories":[],"categories_nodes":[],"categories_segments":[],"categories_sizes":[],"default_left":[false,false,false,false,false,false,false,false,false,false,false,false,false,false,false,false,false,false,false,false,true,false,false,false,false,false,false,false,false,false,false,false,false,false,false,false,false,false,false,false,false,false,false,false,false,false,false,false,false,false,false,false,false,false,false,false,false],"id":13,"left_children":[1,3,5,7,9,11,13,15,17,19,21,23,25,27,29,31,33,-1,-1,35,37,39,41,43,45,47,49,-1,51,53,55,-1,-1,-1,-1,-1,-1,-1,-1,-1,-1,-1,-1,-1,-1,-1,-1,-1,-1,-1,-1,-1,-1,-1,-1,-1,-1],"loss_changes":[1.812799E1,4.3506775E0,5.739647E0,4.6751146E0,3.5805206E0,6.3297234E0,3.4993362E0,2.7662578E0,2.3081756E0,3.323578E0,6.468579E0,5.422752E0,5.0239983E0,1.8020868E0,1.8608322E0,2.9962606E0,5.1587105E-1,0E0,0E0,6.017358E0,2.8660278E0,3.5980787E0,6.869722E0,4.6967344E0,2.2279236E0,1.582777E0,3.5585403E0,0E0,1.6752477E0,2.0303059E0,9.771633E-1,1.429596E0,5.6150246E-1,0E0,0E0,4.026635E0,2.1098099E0,2.0909576E0,5.483147E0,4.3234963E0,2.208292E0,0E0,0E0,3.196537E0,4.8416424E0,0E0,0E0,0E0,1.49399E0,5.9115295E0,5.7388077E0,1.4076219E0,1.6267986E0,1.7131634E0,2.7321696E0,3.608107E-1,9.8335266E-1],"parents":[2147483647,0,0,1,1,2,2,3,3,4,4,5,5,6,6,7,7,8,8,9,9,10,10,11,11,12,12,13,13,14,14,15,15,16,16,19,19,20,20,21,21,22,22,23,23,24,24,25,25,26,26,28,28,29,29,30,30],"right_children":[2,4,6,8,10,12,14,16,18,20,22,24,26,28,30,32,34,-1,-1,36,38,40,42,44,46,48,50,-1,52,54,56,-1,-1,-1,-1,-1,-1,-1,-1,-1,-1,-1,-1,-1,-1,-1,-1,-1,-1,-1,-1,-1,-1,-1,-1,-1,-1],"split_conditions":[1.6375543E0,2.87E1,1.6010172E0,1.067764E0,5.53E1,9.2E0,4.9270496E0,4.1112564E1,8.2017606E-1,-4.8545074E-2,1.8589262E0,1.066E2,1.7598091E0,-4.33088E1,2.3E0,2.8696285E1,7.8356E1,-9.940537E-3,1.338236E-2,1.7598091E0,3.69E1,5.70726E1,1.0399429E0,4.9454668E-1,-1.25E0,-3.7E0,7.31E0,1.348414E-2,-9.181704E-1,8.133957E-1,-9.9298185E-1,-6.990564E-3,9.981811E-3,1.2545679E-2,-5.907228E-3,-8.4170105E-4,-9.263198E-3,-9.235851E-3,-4.180534E-3,2.0590604E-3,-8.484065E-3,1.5384199E-2,-1.0765374E-2,-8.067708E-3,-1.891E-3,1.6831202E-2,-8.859515E-3,1.2306954E-2,-1.0438077E-2,-7.937832E-3,-4.0584323E-3,6.2454026E-3,-6.049378E-3,-7.569621E-3,-2.132765E-3,5.640461E-3,-1.011561E-2],"split_indices":[56,0,51,22,36,31,86,44,9,50,60,1,60,54,23,73,3,0,0,60,31,4,12,64,38,28,35,0,92,92,91,0,0,0,0,0,0,0,0,0,0,0,0,0,0,0,0,0,0,0,0,0,0,0,0,0,0],"split_type":[0,0,0,0,0,0,0,0,0,0,0,0,0,0,0,0,0,0,0,0,0,0,0,0,0,0,0,0,0,0,0,0,0,0,0,0,0,0,0,0,0,0,0,0,0,0,0,0,0,0,0,0,0,0,0,0,0],"sum_hessian":[6.558E3,3.226E3,3.332E3,2.26E2,3E3,2.623E3,7.09E2,2.04E2,2.2E1,2.739E3,2.61E2,1.025E3,1.598E3,5E1,6.59E2,1.95E2,9E0,4E0,1.8E1,3.12E2,2.427E3,2.23E2,3.8E1,1.005E3,2E1,1.79E2,1.419E3,7E0,4.3E1,4.11E2,2.48E2,1.86E2,9E0,8E0,1E0,1.33E2,1.79E2,2.319E3,1.08E2,3.4E1,1.89E2,2.5E1,1.3E1,1.26E2,8.79E2,1.7E1,3E0,2E0,1.77E2,2.62E2,1.157E3,1.4E1,2.9E1,3.34E2,7.7E1,3E0,2.45E2],"tree_param":{"num_deleted":"0","num_feature":"153","num_nodes":"57","size_leaf_vector":"0"}},{"base_weights":[-2.0720981E-1,-2.4163531E-1,-1.3137263E-1,-3.1079695E-1,-2.2249667E-1,-1.6220447E-1,-3.6972277E-2,-3.150866E-1,2.4710283E-1,2.13116E-1,-2.2540934E-1,-6.1844885E-3,-1.9131866E-1,5.457907E-2,-1.7731874E-1,-3.2952425E-1,-2.1416014E-1,4.4817767E-1,-2.3741446E-1,4.5516744E-1,-2.408772E-1,-3.067219E-1,-2.1060166E-1,-4.853266E-2,4.0283632E-1,-3.426964E-1,-1.7234565E-1,1.7708623E-1,-1.827879E-1,-2.0404804E-1,4.8969063E-1,-3.3636987E-1,-1.8334682E-1,2.0090553E-1,-2.9118067E-1,5.1034313E-1,-1.8623415E-1,-3.444314E-1,2.9377824E-1,2.1280473E-1,-3.230225E-1,-1.9784684E-1,-3.216098E-1,4.0180776E-1,-8.546108E-2,4.7964108E-1,-2.690758E-1,3.3614567E-1,-3.7983537E-1,2.9671532E-1,-1.8507244E-1,2.665975E-1,-7.483559E-2,2.8652322E-1,-2.5221798E-1,2.2598898E-2,-2.9226053E-1],"categories":[],"categories_nodes":[],"categories_segments":[],"categories_sizes":[],"default_left":[false,false,false,false,false,false,false,false,false,false,false,false,false,false,false,false,false,false,false,false,false,false,false,false,false,false,false,false,false,false,false,false,false,false,false,false,false,false,false,false,false,false,false,false,false,false,false,false,false,false,false,false,false,false,false,false,false],"id":14,"left_children":[1,3,5,7,9,11,13,15,17,19,21,23,25,27,29,31,33,-1,-1,35,37,39,41,43,45,47,49,51,53,55,-1,-1,-1,-1,-1,-1,-1,-1,-1,-1,-1,-1,-1,-1,-1,-1,-1,-1,-1,-1,-1,-1,-1,-1,-1,-1,-1],"loss_changes":[1.7092041E1,5.9005737E0,5.9606056E0,2.4112396E0,4.5345E0,7.016815E0,6.511225E0,1.3399353E0,8.857976E-1,2.7469923E0,4.1652374E0,4.245944E0,3.680397E0,8.959669E0,3.6656594E0,7.83905E-1,4.0226026E0,0E0,0E0,6.612799E-1,5.9947884E-1,4.63332E0,4.148636E0,3.7262788E0,1.3159993E0,3.7581367E0,6.973728E0,4.5975695E0,3.4936187E0,3.8652716E0,0E0,2.5941467E-1,1.9153688E0,3.3156805E0,1.852663E0,0E0,0E0,0E0,0E0,1.7831352E0,3.739067E0,1.2960754E1,1.7217274E0,6.6359925E-1,3.8187418E0,7.085309E-1,0E0,6.531281E-1,1.5691643E0,1.985275E0,4.5344086E0,4.5801725E0,2.3914742E0,1.7822539E0,3.5986276E0,4.133027E0,2.3697891E0],"parents":[2147483647,0,0,1,1,2,2,3,3,4,4,5,5,6,6,7,7,8,8,9,9,10,10,11,11,12,12,13,13,14,14,15,15,16,16,19,19,20,20,21,21,22,22,23,23,24,24,25,25,26,26,27,27,28,28,29,29],"right_children":[2,4,6,8,10,12,14,16,18,20,22,24,26,28,30,32,34,-1,-1,36,38,40,42,44,46,48,50,52,54,56,-1,-1,-1,-1,-1,-1,-1,-1,-1,-1,-1,-1,-1,-1,-1,-1,-1,-1,-1,-1,-1,-1,-1,-1,-1,-1,-1],"split_conditions":[2.2894173E0,1.2534817E0,8.094946E-1,1.4641005E0,-1.07E1,1.6850584E1,2.4068707E1,9.236E1,3.68E1,9.8460484E-1,3.26E1,9.055933E-1,2.045E1,1.2246E2,5.100361E1,1.3169733E0,1.0359E2,1.344533E-2,-7.1224337E-3,1.5038223E0,1.0291635E0,1.003666E0,2.5795394E-1,1.686E1,9.801558E-1,-1.62E1,3.489453E1,1.0240074E0,1.9E1,2.4E0,1.4690719E-2,-1.0091096E-2,-5.5004046E-3,6.027166E-3,-8.73542E-3,1.5310294E-2,-5.587024E-3,-1.0332942E-2,8.813347E-3,6.3841417E-3,-9.690675E-3,-5.9354054E-3,-9.648293E-3,1.2054232E-2,-2.5638323E-3,1.4389232E-2,-8.072274E-3,1.008437E-2,-1.139506E-2,8.901459E-3,-5.552173E-3,7.997925E-3,-2.2450676E-3,8.595697E-3,-7.566539E-3,6.779669E-4,-8.767815E-3],"split_indices":[59,59,64,60,29,61,49,37,0,11,1,63,37,36,72,57,37,0,0,51,5,22,87,37,9,29,4,51,0,31,0,0,0,0,0,0,0,0,0,0,0,0,0,0,0,0,0,0,0,0,0,0,0,0,0,0,0],"split_type":[0,0,0,0,0,0,0,0,0,0,0,0,0,0,0,0,0,0,0,0,0,0,0,0,0,0,0,0,0,0,0,0,0,0,0,0,0,0,0,0,0,0,0,0,0,0,0,0,0,0,0,0,0,0,0,0,0],"sum_hessian":[6.558E3,4.509E3,2.049E3,9.74E2,3.535E3,1.544E3,5.05E2,9.67E2,7E0,2.3E1,3.512E3,2.43E2,1.301E3,3.06E2,1.99E2,8.44E2,1.23E2,5E0,2E0,1.5E1,8E0,5.38E2,2.974E3,2.21E2,2.2E1,1.43E2,1.158E3,2.02E2,1.04E2,1.92E2,7E0,8.05E2,3.9E1,1.9E1,1.04E2,1.4E1,1E0,7E0,1E0,1.6E1,5.22E2,2.67E3,3.04E2,1.6E1,2.05E2,2E1,2E0,7E0,1.36E2,3E1,1.128E3,1.49E2,5.3E1,1.3E1,9.1E1,5.4E1,1.38E2],"tree_param":{"num_deleted":"0","num_feature":"153","num_nodes":"57","size_leaf_vector":"0"}},{"base_weights":[-2.0099221E-1,-2.6171118E-1,-1.6010042E-1,-2.7293512E-1,-1.0964705E-1,-6.3583195E-2,-1.753602E-1,3.9518508E-1,-2.7473265E-1,1.5582933E-1,-3.2199425E-1,5.1465195E-2,-1.4176121E-1,-1.3256678E-1,-2.1259218E-1,-1.0133467E-1,-2.804674E-1,3.2525524E-1,-2.6716897E-1,3.8460407E-1,-3.3997226E-1,-2.9289229E-2,2.8559923E-1,1.3801141E-1,-1.8923403E-1,-9.836865E-2,-2.4049602E-1,-2.4301153E-1,-1.2591065E-1,-3.009234E-1,4.0638196E-1,-1.2894839E-1,-2.8834593E-1,4.0354308E-1,-3.139606E-1,1.897571E-1,-3.4148017E-1,1.3976157E-1,-1.5486653E-1,3.8622198E-1,-1.1553597E-1,3.5171366E-1,-1.6807231E-1,4.528993E-1,-2.0285323E-1,-1.2003563E-1,1.7678724E-1,-2.7680993E-1,-8.181296E-2,-1.869106E-1,-2.871464E-1,1.21241115E-1,-1.6427693E-1],"categories":[],"categories_nodes":[],"categories_segments":[],"categories_sizes":[],"default_left":[false,false,false,false,false,false,false,false,false,false,false,false,false,false,false,false,false,false,false,false,false,false,false,false,false,false,true,false,false,false,false,false,false,false,false,false,false,false,false,false,false,false,false,false,false,false,false,false,false,false,false,false,false],"id":15,"left_children":[1,3,5,7,9,11,13,-1,15,17,19,21,23,25,27,29,31,33,35,-1,-1,37,39,41,43,45,47,49,51,-1,-1,-1,-1,-1,-1,-1,-1,-1,-1,-1,-1,-1,-1,-1,-1,-1,-1,-1,-1,-1,-1,-1,-1],"loss_changes":[1.624347E1,4.472519E0,5.7653046E0,3.0581207E0,1.0366466E1,4.8372107E0,5.3666687E0,0E0,2.4078522E0,5.963581E0,1.4264841E0,4.1301694E0,4.2762265E0,5.800709E0,4.7393723E0,8.229052E0,2.7931824E0,3.079224E0,8.797116E-1,0E0,0E0,3.4819622E0,2.3049688E0,3.13342E0,2.4880962E0,7.175377E0,2.1613045E0,3.259224E0,4.4955587E0,1.9865952E0,1.6378222E0,4.3099885E0,1.6307526E0,1.4646778E0,0E0,3.6960384E-1,0E0,3.1120076E0,4.2210283E0,1.2622623E0,1.1500527E0,1.3373222E0,1.3959926E0,0E0,2.552496E0,4.591316E0,5.18416E0,3.5039806E0,2.9504063E0,7.2733917E0,2.1049843E0,6.463247E0,4.069392E0],"parents":[2147483647,0,0,1,1,2,2,3,3,4,4,5,5,6,6,8,8,9,9,10,10,11,11,12,12,13,13,14,14,15,15,16,16,17,17,18,18,21,21,22,22,23,23,24,24,25,25,26,26,27,27,28,28],"right_children":[2,4,6,8,10,12,14,-1,16,18,20,22,24,26,28,30,32,34,36,-1,-1,38,40,42,44,46,48,50,52,-1,-1,-1,-1,-1,-1,-1,-1,-1,-1,-1,-1,-1,-1,-1,-1,-1,-1,-1,-1,-1,-1,-1,-1],"split_conditions":[1.4500531E0,1.0651926E0,2.82E1,1.1583439E1,2.5795394E-1,1.0487581E0,7.637755E0,1.1855552E-2,-8.2134495E0,1.226886E0,9.9677074E-1,7.6604195E1,1.1435005E1,1.16E1,7.866212E-1,1.0210867E0,2.88E1,1.0345025E0,2.098176E-1,1.1538122E-2,-1.0199168E-2,7.015E1,2E0,2.8498667E1,-1.707E1,1.0775732E0,5.01E1,-9.48E0,9.5185244E-1,-9.027702E-3,1.2191459E-2,-3.8684516E-3,-8.650377E-3,1.2106292E-2,-9.418818E-3,5.6927125E-3,-1.0244405E-2,4.192847E-3,-4.645996E-3,1.1586659E-2,-3.466079E-3,1.055141E-2,-5.0421692E-3,1.3586979E-2,-6.085597E-3,-3.6010689E-3,5.303617E-3,-8.304298E-3,-2.454389E-3,-5.6073177E-3,-8.614391E-3,3.6372333E-3,-4.9283076E-3],"split_indices":[56,12,0,61,87,12,2,0,50,56,10,82,44,28,64,22,0,20,87,0,0,37,23,47,39,12,31,43,22,0,0,0,0,0,0,0,0,0,0,0,0,0,0,0,0,0,0,0,0,0,0,0,0],"split_type":[0,0,0,0,0,0,0,0,0,0,0,0,0,0,0,0,0,0,0,0,0,0,0,0,0,0,0,0,0,0,0,0,0,0,0,0,0,0,0,0,0,0,0,0,0,0,0,0,0,0,0,0,0],"sum_hessian":[6.558E3,2.637E3,3.921E3,2.455E3,1.82E2,5.36E2,3.385E3,6E0,2.449E3,8.1E1,1.01E2,2.17E2,3.19E2,1.577E3,1.808E3,7.9E1,2.37E3,5.8E1,2.3E1,2E0,9.9E1,1.62E2,5.5E1,4.6E1,2.73E2,1.199E3,3.78E2,1.337E3,4.71E2,5.7E1,2.2E1,1.18E2,2.252E3,5.2E1,6E0,3E0,2E1,6.9E1,9.3E1,4.4E1,1.1E1,2.7E1,1.9E1,5E0,2.68E2,1.112E3,8.7E1,3.07E2,7.1E1,5.91E2,7.46E2,6.3E1,4.08E2],"tree_param":{"num_deleted":"0","num_feature":"153","num_nodes":"53","size_leaf_vector":"0"}},{"base_weights":[-1.9496274E-1,-2.2757477E-1,-1.2312118E-1,-2.930085E-1,-2.09468E-1,-8.78306E-2,-2.0055735E-1,-2.9717734E-1,2.480492E-1,2.1165904E-1,-2.1228543E-1,-1.241194E-1,2.159458E-2,-2.166174E-1,3.364722E-2,-3.1104442E-1,-2.002834E-1,4.4418192E-1,-2.2689927E-1,4.4553939E-1,-2.276459E-1,-2.9093826E-1,-1.9796403E-1,-1.5711051E-1,4.4583157E-2,1.1714979E-1,-1.6179718E-1,-1.6310275E-1,-2.710274E-1,-3.5535142E-1,1.3562782E-1,-3.1767812E-1,-1.6959928E-1,2.0339578E-1,-2.752672E-1,4.994607E-1,-1.816401E-1,-3.2889467E-1,2.911721E-1,2.8461802E-1,-3.0458397E-1,-1.8570164E-1,-3.047014E-1,-3.444958E-2,-1.9856307E-1,-3.8239294E-1,8.726891E-2,2.488865E-1,-1.4113632E-1,3.1390977E-1,-2.0748168E-1,-1.7704599E-1,3.7667084E-1,4.2292064E-1,-2.795761E-1,2.6270398E-1,-2.4655084E-1],"categories":[],"categories_nodes":[],"categories_segments":[],"categories_sizes":[],"default_left":[false,false,false,false,false,false,false,false,false,false,false,false,false,false,false,false,false,false,false,false,false,false,false,false,false,false,false,false,false,false,false,false,false,false,false,false,false,false,false,false,false,false,false,false,false,false,false,false,false,false,false,false,false,false,false,false,false],"id":16,"left_children":[1,3,5,7,9,11,13,15,17,19,21,23,25,27,29,31,33,-1,-1,35,37,39,41,43,45,47,49,51,53,-1,55,-1,-1,-1,-1,-1,-1,-1,-1,-1,-1,-1,-1,-1,-1,-1,-1,-1,-1,-1,-1,-1,-1,-1,-1,-1,-1],"loss_changes":[1.533905E1,5.282028E0,5.5845585E0,2.2729187E0,4.2403717E0,5.60166E0,2.4183083E0,1.2383423E0,8.4600794E-1,2.5673003E0,3.8995056E0,5.901066E0,6.1874156E0,1.7028332E0,1.7143488E0,7.389908E-1,3.809394E0,0E0,0E0,6.3181543E-1,5.68532E-1,4.319931E0,3.837265E0,4.498125E0,3.2046595E0,7.929104E0,2.694755E0,2.362177E0,1.8742142E0,0E0,1.7160072E0,2.6037598E-1,1.9036336E0,3.314952E0,1.7413936E0,0E0,0E0,0E0,0E0,1.0567787E0,1.6336784E0,1.2477043E1,1.682394E0,4.0562425E0,3.9283504E0,0E0,2.4017525E0,4.3221426E0,4.2283373E0,6.846751E-1,2.5723114E0,2.043023E0,5.430453E-1,0E0,1.1179695E0,1.3427415E0,6.083106E-1],"parents":[2147483647,0,0,1,1,2,2,3,3,4,4,5,5,6,6,7,7,8,8,9,9,10,10,11,11,12,12,13,13,14,14,15,15,16,16,19,19,20,20,21,21,22,22,23,23,24,24,25,25,26,26,27,27,28,28,30,30],"right_children":[2,4,6,8,10,12,14,16,18,20,22,24,26,28,30,32,34,-1,-1,36,38,40,42,44,46,48,50,52,54,-1,56,-1,-1,-1,-1,-1,-1,-1,-1,-1,-1,-1,-1,-1,-1,-1,-1,-1,-1,-1,-1,-1,-1,-1,-1,-1,-1],"split_conditions":[2.2894173E0,1.2534817E0,1.1108114E0,1.4641005E0,-1.07E1,8.094946E-1,1.0307751E0,9.236E1,3.68E1,9.8460484E-1,3.26E1,3.5346084E0,2.4068707E1,2.3637224E1,-2.565E1,1.3169733E0,1.0359E2,1.3325457E-2,-6.806978E-3,1.5038223E0,1.0291635E0,-1.487E1,2.5795394E-1,1.9466875E1,7.6125345E0,1.2246E2,1.5104054E1,2.3369585E1,-4.7369517E-15,-1.0660542E-2,8.561914E-1,-9.530343E-3,-5.087978E-3,6.1018732E-3,-8.258016E-3,1.4983821E-2,-5.449203E-3,-9.86684E-3,8.735162E-3,8.53854E-3,-9.137519E-3,-5.571049E-3,-9.141042E-3,-1.0334874E-3,-5.956892E-3,-1.1471788E-2,2.6180672E-3,7.4665947E-3,-4.2340895E-3,9.417293E-3,-6.22445E-3,-5.3113797E-3,1.1300125E-2,1.2687619E-2,-8.3872825E-3,7.881119E-3,-7.3965252E-3],"split_indices":[59,59,51,60,29,64,5,37,0,11,1,58,49,61,42,57,37,0,0,51,5,43,87,61,45,36,48,61,86,0,64,0,0,0,0,0,0,0,0,0,0,0,0,0,0,0,0,0,0,0,0,0,0,0,0,0,0],"split_type":[0,0,0,0,0,0,0,0,0,0,0,0,0,0,0,0,0,0,0,0,0,0,0,0,0,0,0,0,0,0,0,0,0,0,0,0,0,0,0,0,0,0,0,0,0,0,0,0,0,0,0,0,0,0,0,0,0],"sum_hessian":[6.558E3,4.509E3,2.049E3,9.74E2,3.535E3,1.409E3,6.4E2,9.67E2,7E0,2.3E1,3.512E3,1.058E3,3.51E2,5.99E2,4.1E1,8.44E2,1.23E2,5E0,2E0,1.5E1,8E0,5.38E2,2.974E3,8.85E2,1.73E2,2.31E2,1.2E2,3.04E2,2.95E2,8E0,3.3E1,8.05E2,3.9E1,1.9E1,1.04E2,1.4E1,1E0,7E0,1E0,1.2E1,5.26E2,2.67E3,3.04E2,2.24E2,6.61E2,1.5E1,1.58E2,1.53E2,7.8E1,1E1,1.1E2,2.97E2,7E0,3E0,2.92E2,2.5E1,8E0],"tree_param":{"num_deleted":"0","num_feature":"153","num_nodes":"57","size_leaf_vector":"0"}},{"base_weights":[-1.891179E-1,-2.370917E-1,-1.4261307E-1,-1.1259435E-1,-2.4642986E-1,-1.22103184E-1,-2.1821211E-1,-1.5870015E-1,3.0324414E-1,-2.5663486E-1,-1.3876529E-1,-6.4217694E-2,-1.5916911E-1,2.4803635E-2,-2.3665997E-1,-1.83135E-1,3.3609277E-1,-3.040717E-1,4.471039E-1,3.897984E-1,-2.581961E-1,-2.0178752E-1,2.2676656E-1,-7.446174E-2,4.2957905E-1,-3.0751926E-1,-1.4025207E-1,4.3184787E-1,-4.9768124E-2,-1.958034E-1,-3.033116E-1,-2.0907824E-1,3.2031685E-1,4.1458264E-1,-1.8515797E-1,-7.988391E-2,-2.631266E-1,8.170374E-2,-2.5294754E-1,5.1583534E-1,-3.2627308E-1,-4.7593758E-2,-2.4170598E-1,5.6197155E-1,-2.7358192E-1,4.1321E-1,-3.1793875E-1,-2.2182344E-1,-1.09803E-1,2.1388406E-1,-1.7993528E-1,-2.0727035E-1,2.0370108E-1,-3.1028295E-1,2.0125547E-1],"categories":[],"categories_nodes":[],"categories_segments":[],"categories_sizes":[],"default_left":[false,false,false,false,false,false,false,false,false,false,false,false,false,false,false,false,false,false,false,false,false,false,false,false,false,false,false,false,false,false,false,false,false,false,false,false,false,false,false,false,false,false,false,false,false,false,false,false,false,false,false,false,false,false,false],"id":17,"left_children":[1,3,5,7,9,11,13,15,17,19,21,23,25,27,29,31,33,-1,-1,-1,35,37,39,41,43,45,47,-1,49,51,53,-1,-1,-1,-1,-1,-1,-1,-1,-1,-1,-1,-1,-1,-1,-1,-1,-1,-1,-1,-1,-1,-1,-1,-1],"loss_changes":[1.4599396E1,3.7238922E0,5.141266E0,4.400298E0,3.2616425E0,5.6197777E0,3.1888847E0,2.5400386E0,2.1454225E0,2.8659363E0,6.0813546E0,5.2219863E0,4.444214E0,1.5695465E0,1.737896E0,2.6269598E0,4.8589218E-1,0E0,0E0,0E0,2.3826447E0,3.269433E0,6.403096E0,4.508973E0,2.1087034E0,1.4831085E0,3.5025997E0,0E0,1.5485148E0,1.929636E0,9.383087E-1,1.3763819E0,5.469991E-1,0E0,0E0,8.216136E0,2.5594482E0,4.214349E0,2.0957527E0,0E0,0E0,6.5407557E0,5.2104254E0,0E0,0E0,0E0,1.437458E0,6.189785E0,7.129837E0,1.3919485E0,1.5901542E0,1.3933544E0,1.1958761E0,9.4563675E-1,3.5697058E-1],"parents":[2147483647,0,0,1,1,2,2,3,3,4,4,5,5,6,6,7,7,8,8,9,9,10,10,11,11,12,12,13,13,14,14,15,15,16,16,20,20,21,21,22,22,23,23,24,24,25,25,26,26,28,28,29,29,30,30],"right_children":[2,4,6,8,10,12,14,16,18,20,22,24,26,28,30,32,34,-1,-1,-1,36,38,40,42,44,46,48,-1,50,52,54,-1,-1,-1,-1,-1,-1,-1,-1,-1,-1,-1,-1,-1,-1,-1,-1,-1,-1,-1,-1,-1,-1,-1,-1],"split_conditions":[1.6375543E0,2.87E1,1.6010172E0,1.067764E0,5.53E1,9.2E0,4.9270496E0,4.1112564E1,8.2017606E-1,1.1583439E1,1.8589262E0,1.066E2,1.7598091E0,-4.33088E1,2.3E0,2.8696285E1,7.8356E1,-9.122151E-3,1.3413116E-2,1.1693952E-2,9.7601783E-1,5.70726E1,1.0399429E0,3.078989E1,-1.25E0,-3.7E0,9.9480903E-1,1.2955436E-2,-9.181704E-1,1.2069917E0,9.597334E0,-6.272347E-3,9.6095055E-3,1.2437479E-2,-5.554739E-3,-2.3965172E-3,-7.893798E-3,2.451112E-3,-7.588426E-3,1.547506E-2,-9.788192E-3,-1.4278127E-3,-7.2511793E-3,1.6859146E-2,-8.207457E-3,1.23963E-2,-9.5381625E-3,-6.654703E-3,-3.2940898E-3,6.4165215E-3,-5.3980583E-3,-6.2181107E-3,6.1110323E-3,-9.308488E-3,6.037664E-3],"split_indices":[56,0,51,22,36,31,86,44,9,61,60,1,60,54,23,73,3,0,0,0,13,4,12,61,38,28,20,0,92,63,52,0,0,0,0,0,0,0,0,0,0,0,0,0,0,0,0,0,0,0,0,0,0,0,0],"split_type":[0,0,0,0,0,0,0,0,0,0,0,0,0,0,0,0,0,0,0,0,0,0,0,0,0,0,0,0,0,0,0,0,0,0,0,0,0,0,0,0,0,0,0,0,0,0,0,0,0,0,0,0,0,0,0],"sum_hessian":[6.558E3,3.226E3,3.332E3,2.26E2,3E3,2.623E3,7.09E2,2.04E2,2.2E1,2.739E3,2.61E2,1.025E3,1.598E3,5E1,6.59E2,1.95E2,9E0,4E0,1.8E1,6E0,2.733E3,2.23E2,3.8E1,1.005E3,2E1,1.79E2,1.419E3,7E0,4.3E1,4.11E2,2.48E2,1.86E2,9E0,8E0,1E0,7.4E1,2.659E3,3.4E1,1.89E2,2.5E1,1.3E1,8.67E2,1.38E2,1.7E1,3E0,2E0,1.77E2,3.84E2,1.035E3,1.4E1,2.9E1,4E2,1.1E1,2.45E2,3E0],"tree_param":{"num_deleted":"0","num_feature":"153","num_nodes":"55","size_leaf_vector":"0"}},{"base_weights":[-1.8344133E-1,-2.1472596E-1,-1.15875795E-1,-1.2462651E-1,-2.2688109E-1,-1.0332617E-1,-3.111245E-1,-1.4726843E-1,4.3657425E-1,-2.3576578E-1,-1.3098083E-1,-8.855117E-2,-2.7187473E-1,-3.2531592E-1,3.7443194E-1,2.9245948E-2,-1.9093359E-1,5.2432585E-1,-2.647105E-1,-8.402295E-2,-2.4059755E-1,1.1442442E-1,-2.9353613E-1,-5.9486456E-2,-1.6285056E-1,2.6153493E-1,-2.9114172E-1,2.8527534E-1,-3.326591E-1,3.0215898E-1,-1.963007E-1,-9.852915E-2,-2.8153157E-1,-3.439844E-1,8.0581725E-2,-2.5234208E-1,-1.7914167E-1,3.445942E-1,-4.3276347E-2,-3.0957296E-1,2.8460234E-1,5.4881733E-2,-1.0888743E-1,2.783434E-2,-2.0096307E-1,-1.9376536E-1,3.9134806E-1,1.7633034E-1,-3.0173734E-1,-3.4012276E-1,2.8522274E-1],"categories":[],"categories_nodes":[],"categories_segments":[],"categories_sizes":[],"default_left":[false,false,false,false,false,false,false,false,false,false,false,false,false,false,false,false,false,false,false,false,false,false,false,false,false,false,false,false,false,false,false,false,false,false,false,false,false,false,false,false,false,false,false,false,false,false,false,false,false,false,false],"id":18,"left_children":[1,3,5,7,9,11,13,15,17,19,21,23,25,27,-1,29,31,-1,-1,33,35,37,39,41,43,45,47,-1,49,-1,-1,-1,-1,-1,-1,-1,-1,-1,-1,-1,-1,-1,-1,-1,-1,-1,-1,-1,-1,-1,-1],"loss_changes":[1.3839279E1,4.8802795E0,5.0595703E0,6.862359E0,3.3329926E0,4.841982E0,1.3379364E0,3.9749613E0,1.4311099E0,2.6280518E0,1.3477165E1,3.8730764E0,1.6896639E0,6.463909E-1,0E0,6.39944E0,3.4297552E0,0E0,0E0,4.863087E0,2.4810028E0,4.915136E0,1.9702225E0,7.3169465E0,3.6756697E0,4.3045345E-1,8.060856E-1,0E0,6.596346E-1,1.6317935E0,1.7811906E0,6.60611E0,1.5465374E0,7.436409E-1,4.4153047E0,3.7949677E0,5.640642E0,2.5215378E0,3.2807186E0,4.251461E-1,4.1210514E-1,6.05076E0,7.10865E0,5.381956E0,4.060545E0,0E0,0E0,3.296144E-1,6.8314266E-1,5.895462E-1,0E0],"parents":[2147483647,0,0,1,1,2,2,3,3,4,4,5,5,6,6,7,7,8,8,9,9,10,10,11,11,12,12,13,13,15,15,16,16,19,19,20,20,21,21,22,22,23,23,24,24,25,25,26,26,28,28],"right_children":[2,4,6,8,10,12,14,16,18,20,22,24,26,28,-1,30,32,-1,-1,34,36,38,40,42,44,46,48,-1,50,-1,-1,-1,-1,-1,-1,-1,-1,-1,-1,-1,-1,-1,-1,-1,-1,-1,-1,-1,-1,-1,-1],"split_conditions":[2.193677E0,-1.31E1,6.509203E1,2.7504093E1,1.0644171E0,3.1E0,4.6277146E0,4.9407855E-1,5E1,9.7348416E-1,2.5473157E-1,1.0285772E0,0E0,9.695876E-1,1.1232958E-2,-4.270714E0,1E-1,1.5729776E-2,-7.941314E-3,9.751411E-1,1.0154402E0,1.2228854E0,9.4250554E-1,4.893962E1,9.625316E-1,2.5453035E1,-1.86E1,8.55826E-3,1.0371927E0,9.064769E-3,-5.889021E-3,-2.9558744E-3,-8.445947E-3,-1.0319532E-2,2.4174517E-3,-7.570262E-3,-5.37425E-3,1.0337826E-2,-1.2982904E-3,-9.287189E-3,8.53807E-3,1.646452E-3,-3.2666228E-3,8.350302E-4,-6.028892E-3,-5.8129607E-3,1.1740441E-2,5.2899104E-3,-9.05212E-3,-1.0203683E-2,8.556682E-3],"split_indices":[58,43,4,65,12,23,52,63,67,13,87,16,142,10,0,50,27,0,0,12,10,56,8,4,10,3,28,0,5,0,0,0,0,0,0,0,0,0,0,0,0,0,0,0,0,0,0,0,0,0,0],"split_type":[0,0,0,0,0,0,0,0,0,0,0,0,0,0,0,0,0,0,0,0,0,0,0,0,0,0,0,0,0,0,0,0,0,0,0,0,0,0,0,0,0,0,0,0,0,0,0,0,0,0,0],"sum_hessian":[6.558E3,4.481E3,2.077E3,5.34E2,3.947E3,1.953E3,1.24E2,5.14E2,2E1,3.611E3,3.36E2,1.797E3,1.56E2,1.22E2,2E0,1.02E2,4.12E2,1.8E1,2E0,1.12E2,3.499E3,1.34E2,2.02E2,1.293E3,5.04E2,5E0,1.51E2,1E0,1.21E2,4.6E1,5.6E1,2.05E2,2.07E2,4.3E1,6.9E1,2.935E3,5.64E2,5.4E1,8E1,1.97E2,5E0,3.9E2,9.03E2,8.4E1,4.2E2,1E0,4E0,3E0,1.48E2,1.2E2,1E0],"tree_param":{"num_deleted":"0","num_feature":"153","num_nodes":"51","size_leaf_vector":"0"}},{"base_weights":[-1.77938E-1,-2.3243928E-1,-1.412342E-1,-2.4304192E-1,-8.887355E-2,-5.0339982E-2,-1.5560779E-1,3.720052E-1,-2.447E-1,1.8522811E-1,-2.6833794E-1,3.6675844E-2,-1.4599672E-1,-1.1536228E-1,-1.9062814E-1,-8.086836E-2,-2.5012463E-1,3.4756035E-1,-2.3328787E-1,3.9425638E-1,-2.8411266E-1,1.6508275E-3,4.7190815E-1,3.7645382E-1,-1.6436791E-1,-8.261421E-2,-2.1874571E-1,-2.1930404E-1,-1.08935356E-1,-2.760485E-1,4.1484112E-1,-1.0798623E-1,-2.5752115E-1,4.3651065E-1,-2.9932886E-1,1.9648354E-1,-3.158322E-1,3.7595412E-1,-2.9996395E-1,-1.134632E-1,1.3067663E-1,5.156939E-1,-2.0190376E-1,4.6358222E-1,-1.6028668E-1,2.6086888E-1,-1.8709551E-1,-1.0321543E-1,1.7888325E-1,-3.252858E-1,-1.6246988E-1,-1.6692428E-1,-2.605216E-1,1.2578365E-1,-1.4539766E-1],"categories":[],"categories_nodes":[],"categories_segments":[],"categories_sizes":[],"default_left":[false,false,false,false,false,false,false,false,false,false,false,false,false,false,false,false,false,false,false,false,false,false,false,false,false,false,false,false,false,false,false,false,false,false,false,false,false,false,false,false,false,false,false,false,false,false,false,false,false,false,false,false,false,false,false],"id":19,"left_children":[1,3,5,7,9,11,13,-1,15,17,19,21,23,25,27,29,31,33,35,-1,37,39,41,43,45,47,49,51,53,-1,-1,-1,-1,-1,-1,-1,-1,-1,-1,-1,-1,-1,-1,-1,-1,-1,-1,-1,-1,-1,-1,-1,-1,-1,-1],"loss_changes":[1.3087814E1,3.9938965E0,5.1161575E0,2.5956573E0,9.051746E0,4.475154E0,4.7502747E0,0E0,2.1571503E0,5.0406017E0,1.272212E0,4.298034E0,2.5189762E0,5.324419E0,4.2138977E0,7.8547287E0,2.4649048E0,3.1803327E0,8.0703473E-1,0E0,1.2532301E0,3.9062288E0,7.2369146E-1,4.9519408E-1,2.4456306E0,6.4830656E0,2.2194958E0,2.8452072E0,4.0578513E0,1.8541436E0,1.6381216E0,4.2418814E0,1.5163116E0,1.5677977E0,0E0,3.6947757E-1,0E0,0E0,3.425789E-2,2.700509E0,2.1289544E0,0E0,0E0,0E0,0E0,1.2378734E0,3.259118E0,4.566042E0,4.976858E0,1.088007E0,2.6461682E0,7.2166843E0,2.0696182E0,6.286339E0,4.1002426E0],"parents":[2147483647,0,0,1,1,2,2,3,3,4,4,5,5,6,6,8,8,9,9,10,10,11,11,12,12,13,13,14,14,15,15,16,16,17,17,18,18,20,20,21,21,22,22,23,23,24,24,25,25,26,26,27,27,28,28],"right_children":[2,4,6,8,10,12,14,-1,16,18,20,22,24,26,28,30,32,34,36,-1,38,40,42,44,46,48,50,52,54,-1,-1,-1,-1,-1,-1,-1,-1,-1,-1,-1,-1,-1,-1,-1,-1,-1,-1,-1,-1,-1,-1,-1,-1,-1,-1],"split_conditions":[1.4500531E0,1.0651926E0,2.82E1,1.1583439E1,2.5130326E-1,1.1141E2,7.637755E0,1.1160156E-2,-8.2134495E0,1.226886E0,-1.2E0,3.5475607E0,1.21376E1,1.16E1,7.866212E-1,1.0210867E0,2.88E1,1.0345025E0,2.098176E-1,1.1827691E-2,2.224E1,-4.0900573E-2,6.709116E1,2.01E1,-1.707E1,1.0775732E0,2.4936178E1,-9.48E0,9.5185244E-1,-8.281455E-3,1.2445233E-2,-3.2395867E-3,-7.7256346E-3,1.3095319E-2,-8.979865E-3,5.894506E-3,-9.474966E-3,1.1278624E-2,-8.998918E-3,-3.403896E-3,3.9202985E-3,1.5470817E-2,-6.0571125E-3,1.3907466E-2,-4.8086E-3,7.826067E-3,-5.612865E-3,-3.096463E-3,5.3664977E-3,-9.758574E-3,-4.8740963E-3,-5.0077285E-3,-7.815648E-3,3.7735095E-3,-4.36193E-3],"split_indices":[56,12,0,61,87,36,2,0,50,56,27,60,61,28,64,22,0,20,87,0,35,91,3,0,39,12,70,43,22,0,0,0,0,0,0,0,0,0,0,0,0,0,0,0,0,0,0,0,0,0,0,0,0,0,0],"split_type":[0,0,0,0,0,0,0,0,0,0,0,0,0,0,0,0,0,0,0,0,0,0,0,0,0,0,0,0,0,0,0,0,0,0,0,0,0,0,0,0,0,0,0,0,0,0,0,0,0,0,0,0,0,0,0],"sum_hessian":[6.558E3,2.637E3,3.921E3,2.455E3,1.82E2,5.36E2,3.385E3,6E0,2.449E3,7.2E1,1.1E2,2.81E2,2.55E2,1.577E3,1.808E3,7.9E1,2.37E3,5.2E1,2E1,2E0,1.08E2,2.61E2,2E1,8E0,2.47E2,1.199E3,3.78E2,1.337E3,4.71E2,5.7E1,2.2E1,1.18E2,2.252E3,4.6E1,6E0,3E0,1.7E1,2E0,1.06E2,1.38E2,1.23E2,1.9E1,1E0,7E0,1E0,1.2E1,2.35E2,1.112E3,8.7E1,1.29E2,2.49E2,5.91E2,7.46E2,6.3E1,4.08E2],"tree_param":{"num_deleted":"0","num_feature":"153","num_nodes":"55","size_leaf_vector":"0"}},{"base_weights":[-1.7259766E-1,-2.0187923E-1,-1.0809399E-1,-2.616176E-1,-1.8535016E-1,-1.3666204E-1,-2.065186E-2,-2.656724E-1,2.6171353E-1,4.113347E-1,-1.8715908E-1,8.276593E-3,-1.6371915E-1,1.3428724E-1,-9.60162E-2,-2.7749753E-1,-1.6366988E-1,4.5240214E-1,-2.0690149E-1,4.888499E-1,-1.8190873E-1,-2.6373082E-1,-1.732838E-1,-3.1667914E-2,3.9346808E-1,-3.1036183E-1,-1.4535826E-1,2.4845882E-1,-1.07114166E-1,3.1098047E-2,-2.0211193E-1,-2.8330886E-1,2.939181E-2,4.6196353E-1,-2.5917208E-1,2.1669205E-1,-2.788426E-1,-1.6221796E-1,-2.8142986E-1,4.0113166E-1,-6.723066E-2,4.6692634E-1,-2.518958E-1,3.3967254E-1,-3.4605464E-1,-6.14666E-2,-2.1211617E-1,3.289908E-1,-2.603282E-1,3.492044E-1,-2.1875939E-1,2.857596E-1,-8.473078E-2,-2.504885E-1,2.362763E-1],"categories":[],"categories_nodes":[],"categories_segments":[],"categories_sizes":[],"default_left":[false,false,false,false,false,false,false,false,false,false,false,false,false,false,false,false,false,false,false,false,false,false,false,false,false,false,false,false,false,false,false,false,false,false,false,false,false,false,false,false,false,false,false,false,false,false,false,false,false,false,false,false,false,false,false],"id":20,"left_children":[1,3,5,7,9,11,13,15,17,19,21,23,25,27,29,31,33,-1,-1,-1,-1,35,37,39,41,43,45,47,49,51,53,-1,-1,-1,-1,-1,-1,-1,-1,-1,-1,-1,-1,-1,-1,-1,-1,-1,-1,-1,-1,-1,-1,-1,-1],"loss_changes":[1.2366608E1,4.40477E0,5.118181E0,2.1384735E0,3.893547E0,6.060261E0,5.9213963E0,1.1221848E0,8.0847895E-1,5.947654E-1,3.7005157E0,3.7667136E0,3.4605064E0,4.601769E0,4.6051064E0,1.5527802E0,6.2739124E0,0E0,0E0,0E0,0E0,3.9735832E0,3.530159E0,3.4438899E0,1.2079849E0,3.4585686E0,6.4778614E0,4.7156653E0,2.8274643E0,4.625767E0,4.0038204E0,3.2422638E-1,1.4314607E0,1.3828564E0,1.3953276E0,1.6751494E0,3.3414345E0,4.957245E0,1.2694931E0,6.782656E-1,3.6871426E0,6.499653E-1,0E0,6.5263426E-1,1.4868698E0,4.7981296E0,2.540989E0,2.7791853E0,9.460597E-1,1.1516438E0,2.0256023E0,1.8935971E0,2.5333793E0,2.4110785E0,1.9232503E0],"parents":[2147483647,0,0,1,1,2,2,3,3,4,4,5,5,6,6,7,7,8,8,9,9,10,10,11,11,12,12,13,13,14,14,15,15,16,16,21,21,22,22,23,23,24,24,25,25,26,26,27,27,28,28,29,29,30,30],"right_children":[2,4,6,8,10,12,14,16,18,20,22,24,26,28,30,32,34,-1,-1,-1,-1,36,38,40,42,44,46,48,50,52,54,-1,-1,-1,-1,-1,-1,-1,-1,-1,-1,-1,-1,-1,-1,-1,-1,-1,-1,-1,-1,-1,-1,-1,-1],"split_conditions":[2.2894173E0,1.2534817E0,8.094946E-1,1.4641005E0,9.5772713E-1,1.6850584E1,2.4008768E1,1.0154402E0,3.68E1,4.69E1,3.26E1,9.055933E-1,2.045E1,2.3924183E1,-2.112E1,1.319E2,9.4777715E-1,1.3572064E-2,-6.2070447E-3,1.4665497E-2,-5.4572616E-3,1.003666E0,1.0444171E0,1.686E1,9.801558E-1,-1.62E1,2.9637525E0,8.92E1,9.8185426E-1,2.6802282E0,5.4272614E0,-8.499266E-3,8.8175427E-4,1.3858906E-2,-7.7751623E-3,6.500761E-3,-8.365278E-3,-4.8665386E-3,-8.4428955E-3,1.203395E-2,-2.0169197E-3,1.400779E-2,-7.5568734E-3,1.0190176E-2,-1.0381639E-2,-1.843998E-3,-6.363485E-3,9.869724E-3,-7.8098457E-3,1.0476132E-2,-6.5627815E-3,8.572788E-3,-2.5419234E-3,-7.5146547E-3,7.0882887E-3],"split_indices":[59,59,64,60,12,61,61,10,0,0,1,63,37,49,43,37,58,0,0,0,0,22,11,37,9,29,50,30,19,55,75,0,0,0,0,0,0,0,0,0,0,0,0,0,0,0,0,0,0,0,0,0,0,0,0],"split_type":[0,0,0,0,0,0,0,0,0,0,0,0,0,0,0,0,0,0,0,0,0,0,0,0,0,0,0,0,0,0,0,0,0,0,0,0,0,0,0,0,0,0,0,0,0,0,0,0,0,0,0,0,0,0,0],"sum_hessian":[6.558E3,4.509E3,2.049E3,9.74E2,3.535E3,1.544E3,5.05E2,9.67E2,7E0,1E1,3.525E3,2.43E2,1.301E3,1.65E2,3.4E2,8.65E2,1.02E2,5E0,2E0,9E0,1E0,5.38E2,2.987E3,2.21E2,2.2E1,1.43E2,1.158E3,1.12E2,5.3E1,1.55E2,1.85E2,8.49E2,1.6E1,1.3E1,8.9E1,1.6E1,5.22E2,2.712E3,2.75E2,1.6E1,2.05E2,2E1,2E0,7E0,1.36E2,5.14E2,6.44E2,9.7E1,1.5E1,1E1,4.3E1,4.8E1,1.07E2,1.67E2,1.8E1],"tree_param":{"num_deleted":"0","num_feature":"153","num_nodes":"55","size_leaf_vector":"0"}},{"base_weights":[-1.6741675E-1,-2.1904239E-1,-1.3264984E-1,-2.2927532E-1,-8.0511674E-2,-4.525592E-2,-1.4647083E-1,3.6661068E-1,-2.3088427E-1,1.8423782E-1,-2.539009E-1,-1.5175256E-2,-3.0859601E-1,-1.0772527E-1,-1.8018782E-1,-7.332021E-2,-2.3610327E-1,3.4118807E-1,-2.2064793E-1,3.9199987E-1,-2.693486E-1,6.2262844E-2,-1.4703809E-1,2.8736845E-1,-3.2495403E-1,-7.619968E-2,-2.072582E-1,-2.074041E-1,-1.0265482E-1,-2.6276258E-1,4.075919E-1,-9.894808E-2,-2.432428E-1,4.277231E-1,-2.885741E-1,1.9571257E-1,-3.0091426E-1,3.716794E-1,-2.8480408E-1,2.6832609E-2,4.1181082E-1,-4.9973696E-2,-2.8408924E-1,-9.609784E-2,1.7633277E-1,-2.343264E-1,4.1548926E-3,-1.5714039E-1,-2.4696063E-1,-1.4327094E-1,8.395347E-2],"categories":[],"categories_nodes":[],"categories_segments":[],"categories_sizes":[],"default_left":[false,false,false,false,false,false,false,false,false,false,false,false,false,false,false,false,false,false,false,false,false,false,false,false,false,false,false,false,false,false,false,false,false,false,false,false,false,false,false,false,false,false,false,false,false,false,false,false,false,false,false],"id":21,"left_children":[1,3,5,7,9,11,13,-1,15,17,19,21,23,25,27,29,31,33,35,-1,37,39,41,-1,-1,43,45,47,49,-1,-1,-1,-1,-1,-1,-1,-1,-1,-1,-1,-1,-1,-1,-1,-1,-1,-1,-1,-1,-1,-1],"loss_changes":[1.1743469E1,3.7211075E0,4.7306366E0,2.439331E0,8.447339E0,4.2491336E0,4.404007E0,0E0,1.9973907E0,4.7142076E0,1.2131085E0,4.941168E0,6.2956524E-1,4.935709E0,3.7959862E0,7.3955107E0,2.2976837E0,3.0117435E0,7.60707E-1,0E0,1.185761E0,3.7662427E0,2.3670018E0,0E0,0E0,6.0468645E0,2.1698284E0,2.6214828E0,3.589459E0,1.8428135E0,1.6378725E0,4.232916E0,1.4956512E0,1.5604877E0,0E0,3.69482E-1,0E0,0E0,3.452301E-2,2.7297332E0,1.2256494E0,4.1834507E0,1.3249836E0,4.5558662E0,4.938038E0,2.634327E0,3.0309806E0,7.2218075E0,2.0443268E0,2.3777223E0,6.2952847E0],"parents":[2147483647,0,0,1,1,2,2,3,3,4,4,5,5,6,6,8,8,9,9,10,10,11,11,12,12,13,13,14,14,15,15,16,16,17,17,18,18,20,20,21,21,22,22,25,25,26,26,27,27,28,28],"right_children":[2,4,6,8,10,12,14,-1,16,18,20,22,24,26,28,30,32,34,36,-1,38,40,42,-1,-1,44,46,48,50,-1,-1,-1,-1,-1,-1,-1,-1,-1,-1,-1,-1,-1,-1,-1,-1,-1,-1,-1,-1,-1,-1],"split_conditions":[1.4500531E0,1.0651926E0,2.82E1,1.1583439E1,2.5130326E-1,3E0,7.637755E0,1.099832E-2,-8.2134495E0,1.226886E0,-1.2E0,2.9161396E1,5.3261224E-2,1.16E1,7.866212E-1,1.0210867E0,2.88E1,1.0345025E0,2.098176E-1,1.17599955E-2,2.224E1,8.679298E1,6.057352E1,8.621053E-3,-9.748621E-3,1.0775732E0,3.1045578E1,-9.48E0,2.6668184E1,-7.882877E-3,1.2227757E-2,-2.9684422E-3,-7.297284E-3,1.2831693E-2,-8.657223E-3,5.871377E-3,-9.027428E-3,1.11503815E-2,-8.544122E-3,8.0497825E-4,1.2354325E-2,-1.4992108E-3,-8.522677E-3,-2.882935E-3,5.289983E-3,-7.0297923E-3,1.2464677E-4,-4.7142114E-3,-7.4088187E-3,-4.298128E-3,2.518604E-3],"split_indices":[56,12,0,61,87,23,2,0,50,56,27,61,69,28,64,22,0,20,87,0,35,82,3,0,0,12,65,43,54,0,0,0,0,0,0,0,0,0,0,0,0,0,0,0,0,0,0,0,0,0,0],"split_type":[0,0,0,0,0,0,0,0,0,0,0,0,0,0,0,0,0,0,0,0,0,0,0,0,0,0,0,0,0,0,0,0,0,0,0,0,0,0,0,0,0,0,0,0,0,0,0,0,0,0,0],"sum_hessian":[6.558E3,2.637E3,3.921E3,2.455E3,1.82E2,5.36E2,3.385E3,6E0,2.449E3,7.2E1,1.1E2,4.82E2,5.4E1,1.577E3,1.808E3,7.9E1,2.37E3,5.2E1,2E1,2E0,1.08E2,3.04E2,1.78E2,1E0,5.3E1,1.199E3,3.78E2,1.337E3,4.71E2,5.7E1,2.2E1,1.18E2,2.252E3,4.6E1,6E0,3E0,1.7E1,2E0,1.06E2,2.77E2,2.7E1,1.05E2,7.3E1,1.112E3,8.7E1,3.35E2,4.3E1,5.91E2,7.46E2,3.87E2,8.4E1],"tree_param":{"num_deleted":"0","num_feature":"153","num_nodes":"51","size_leaf_vector":"0"}},{"base_weights":[-1.6239363E-1,-1.9035842E-1,-1.0199877E-1,-1.07470416E-1,-2.0154248E-1,-9.0323985E-2,-2.8368294E-1,-1.2917985E-1,4.3004537E-1,-2.2710353E-1,-1.7243211E-1,-7.626291E-2,-2.5077924E-1,-2.9734278E-1,3.709316E-1,2.3053224E-1,-1.4877708E-1,5.1511306E-1,-2.5206497E-1,-2.3495558E-1,-2.3355788E-2,3.2331577E-1,-1.7693336E-1,-4.9859196E-2,-1.5385926E-1,2.566082E-1,-2.6915783E-1,-3.045537E-1,2.911939E-1,-2.3322468E-1,4.380733E-1,4.1228366E-1,-1.6255105E-1,-6.750057E-2,-2.4474472E-1,-2.9904237E-1,3.503189E-1,-2.5900128E-1,5.875313E-1,-1.2798946E-1,-2.33195E-1,-8.326616E-2,7.5563595E-2,-7.024544E-2,-2.577216E-1,-1.9526511E-1,3.8603586E-1,1.8238458E-1,-2.7947333E-1,2.865819E-1,-3.1180757E-1],"categories":[],"categories_nodes":[],"categories_segments":[],"categories_sizes":[],"default_left":[false,false,false,false,false,false,false,false,false,true,false,false,false,false,false,false,false,false,false,false,false,false,false,false,false,false,false,false,false,false,false,false,false,false,false,false,false,false,false,false,false,false,false,false,false,false,false,false,false,false,false],"id":22,"left_children":[1,3,5,7,9,11,13,15,17,19,21,23,25,27,-1,29,31,-1,-1,33,35,37,39,41,43,45,47,49,-1,-1,-1,-1,-1,-1,-1,-1,-1,-1,-1,-1,-1,-1,-1,-1,-1,-1,-1,-1,-1,-1,-1],"loss_changes":[1.1058273E1,4.1332703E0,4.3820705E0,6.2985578E0,2.8984985E0,4.3894367E0,1.228035E0,3.6647186E0,1.3483784E0,3.3525696E0,4.185444E0,3.6761293E0,1.533103E0,6.106825E-1,0E0,2.7008817E0,3.8460226E0,0E0,0E0,3.296379E0,8.243112E0,2.7677443E0,5.0203743E0,5.633455E0,3.9419498E0,4.2628884E-1,7.589712E-1,6.124954E-1,0E0,3.5034338E-1,6.084566E-1,5.9315515E-1,2.7477188E0,4.730734E0,1.3418503E0,5.556483E-1,2.8286576E0,0E0,0E0,6.5390778E0,4.02927E0,5.8762774E0,5.247485E0,2.4498622E0,2.364028E0,0E0,0E0,3.2480395E-1,6.8878365E-1,0E0,5.372505E-1],"parents":[2147483647,0,0,1,1,2,2,3,3,4,4,5,5,6,6,7,7,8,8,9,9,10,10,11,11,12,12,13,13,15,15,16,16,19,19,20,20,21,21,22,22,23,23,24,24,25,25,26,26,27,27],"right_children":[2,4,6,8,10,12,14,16,18,20,22,24,26,28,-1,30,32,-1,-1,34,36,38,40,42,44,46,48,50,-1,-1,-1,-1,-1,-1,-1,-1,-1,-1,-1,-1,-1,-1,-1,-1,-1,-1,-1,-1,-1,-1,-1],"split_conditions":[2.193677E0,-1.31E1,6.509203E1,2.7504093E1,1.0305681E0,3.1E0,4.6277146E0,2.0789804E1,5E1,4.95E1,9.4777715E-1,2.5115519E1,0E0,1.0371927E0,1.1127948E-2,1.4285714E1,2.2431758E-1,1.5453392E-2,-7.561949E-3,9.7348416E-1,1.7957076E0,1.0138239E0,1.8899645E1,8.1854737E-1,4.065575E-3,2.5453035E1,9.137075E-1,9.695876E-1,8.735817E-3,-6.99674E-3,1.3142199E-2,1.236851E-2,-4.876531E-3,-2.025017E-3,-7.3423414E-3,-8.971271E-3,1.0509567E-2,-7.770038E-3,1.762594E-2,-3.8396835E-3,-6.9958502E-3,-2.4979848E-3,2.2669078E-3,-2.107363E-3,-7.7316477E-3,-5.8579533E-3,1.1581075E-2,5.4715374E-3,-8.3842E-3,8.597457E-3,-9.354227E-3],"split_indices":[58,43,4,65,12,23,52,3,67,31,58,49,142,5,0,67,63,0,0,13,60,11,50,64,91,3,11,10,0,0,0,0,0,0,0,0,0,0,0,0,0,0,0,0,0,0,0,0,0,0,0],"split_type":[0,0,0,0,0,0,0,0,0,0,0,0,0,0,0,0,0,0,0,0,0,0,0,0,0,0,0,0,0,0,0,0,0,0,0,0,0,0,0,0,0,0,0,0,0,0,0,0,0,0,0],"sum_hessian":[6.558E3,4.481E3,2.077E3,5.34E2,3.947E3,1.953E3,1.24E2,5.14E2,2E1,2.098E3,1.849E3,1.797E3,1.56E2,1.22E2,2E0,2.6E1,4.88E2,1.8E1,2E0,2.02E3,7.8E1,1.6E1,1.833E3,1.342E3,4.55E2,5E0,1.51E2,1.21E2,1E0,8E0,1.8E1,1.1E1,4.77E2,1.12E2,1.908E3,4.5E1,3.3E1,5E0,1.1E1,9.82E2,8.51E2,1.06E3,2.82E2,2.53E2,2.02E2,1E0,4E0,3E0,1.48E2,1E0,1.2E2],"tree_param":{"num_deleted":"0","num_feature":"153","num_nodes":"51","size_leaf_vector":"0"}},{"base_weights":[-1.5751809E-1,-2.0624626E-1,-1.2470257E-1,-2.1613407E-1,-7.241713E-2,2.9169176E-2,-1.3224141E-1,3.5621524E-1,-2.1768114E-1,1.8411143E-1,-2.404727E-1,3.3686346E-1,-6.140655E-2,-1.2033643E-1,-2.2940867E-1,-6.5416105E-2,-2.2272691E-1,3.3610854E-1,-2.0826754E-1,3.8671967E-1,-2.5552872E-1,2.4008912E-3,4.7056845E-1,2.8824016E-1,-1.4527465E-1,-1.9522134E-2,-1.3602509E-1,3.9152727E-2,-2.4412094E-1,-2.4934301E-1,4.0124372E-1,-9.0186656E-2,-2.2962862E-1,4.199969E-1,-2.7515718E-1,1.9497783E-1,-2.8630722E-1,3.6890972E-1,-2.706482E-1,4.1302568E-1,-2.2599076E-1,-1.7627822E-1,4.9895206E-1,4.281509E-1,-1.9265647E-1,-2.9588464E-1,8.212903E-2,7.676784E-2,-1.1701456E-1,-1.1976931E-1,-2.220929E-1,4.7296095E-1,-1.1625916E-1,2.3983152E-1,-2.5239342E-1],"categories":[],"categories_nodes":[],"categories_segments":[],"categories_sizes":[],"default_left":[false,false,false,false,false,false,false,false,false,false,false,false,false,false,false,false,false,false,false,false,false,false,false,false,false,false,false,false,false,false,false,false,false,false,false,false,false,false,false,false,false,false,false,false,false,false,false,false,false,false,false,false,false,false,false],"id":23,"left_children":[1,3,5,7,9,11,13,-1,15,17,19,21,23,25,27,29,31,33,35,-1,37,39,41,43,45,47,49,51,53,-1,-1,-1,-1,-1,-1,-1,-1,-1,-1,-1,-1,-1,-1,-1,-1,-1,-1,-1,-1,-1,-1,-1,-1,-1,-1],"loss_changes":[1.0462372E1,3.4751587E0,4.5534325E0,2.2522278E0,7.933597E0,5.148698E0,4.2975693E0,0E0,1.8677521E0,4.423755E0,1.1469922E0,1.8770814E0,4.2352357E0,5.268955E0,1.6176758E0,6.966551E0,2.1481705E0,2.833303E0,7.1667534E-1,0E0,1.1289349E0,1.3125225E0,6.387496E-1,1.9663992E0,3.9972157E0,4.2333775E0,4.0084E0,1.5382031E0,1.6058807E0,1.8288798E0,1.6328695E0,4.261037E0,1.4515915E0,1.5594969E0,0E0,3.7070104E-1,0E0,0E0,3.8707733E-2,0E0,5.592031E-1,0E0,6.803293E-1,8.2791233E-1,5.0183123E-1,1.8135347E0,3.1526804E0,3.9240193E0,2.1574612E0,6.8867683E0,3.418827E0,0E0,8.8047856E-1,7.454407E-1,1.2670593E0],"parents":[2147483647,0,0,1,1,2,2,3,3,4,4,5,5,6,6,8,8,9,9,10,10,11,11,12,12,13,13,14,14,15,15,16,16,17,17,18,18,20,20,21,21,22,22,23,23,24,24,25,25,26,26,27,27,28,28],"right_children":[2,4,6,8,10,12,14,-1,16,18,20,22,24,26,28,30,32,34,36,-1,38,40,42,44,46,48,50,52,54,-1,-1,-1,-1,-1,-1,-1,-1,-1,-1,-1,-1,-1,-1,-1,-1,-1,-1,-1,-1,-1,-1,-1,-1,-1,-1],"split_conditions":[1.4500531E0,1.0651926E0,3.6647278E1,1.1583439E1,2.5130326E-1,5.806953E-1,2.3554435E0,1.0686457E-2,-8.2134495E0,1.226886E0,-1.2E0,-4.9E0,-1E1,2.82E1,4.3491178E0,1.0210867E0,2.88E1,1.0345025E0,2.098176E-1,1.160159E-2,2.224E1,-1.671E1,1.5677742E0,1.62E1,3.611E1,1.1141E2,1.0285772E0,-6.752804E-1,0E0,-7.4802903E-3,1.2037312E-2,-2.7055996E-3,-6.8888585E-3,1.2599906E-2,-8.254715E-3,5.849335E-3,-8.5892165E-3,1.1067291E-2,-8.119446E-3,1.239077E-2,-6.7797224E-3,-5.2883467E-3,1.4968562E-2,1.2844526E-2,-5.779694E-3,-8.876539E-3,2.463871E-3,2.3030352E-3,-3.5104367E-3,-3.5930793E-3,-6.662787E-3,1.4188828E-2,-3.4877746E-3,7.1949456E-3,-7.5718025E-3],"split_indices":[56,12,4,61,87,63,51,0,50,56,27,27,27,0,86,22,0,20,87,0,35,43,56,30,37,36,16,50,112,0,0,0,0,0,0,0,0,0,0,0,0,0,0,0,0,0,0,0,0,0,0,0,0,0,0],"split_type":[0,0,0,0,0,0,0,0,0,0,0,0,0,0,0,0,0,0,0,0,0,0,0,0,0,0,0,0,0,0,0,0,0,0,0,0,0,0,0,0,0,0,0,0,0,0,0,0,0,0,0,0,0,0,0],"sum_hessian":[6.558E3,2.637E3,3.921E3,2.455E3,1.82E2,1.83E2,3.738E3,6E0,2.449E3,7.2E1,1.1E2,4.1E1,1.42E2,3.332E3,4.06E2,7.9E1,2.37E3,5.2E1,2E1,2E0,1.08E2,1.2E1,2.9E1,2.7E1,1.15E2,4.49E2,2.883E3,2.1E1,3.85E2,5.7E1,2.2E1,1.18E2,2.252E3,4.6E1,6E0,3E0,1.7E1,2E0,1.06E2,4E0,8E0,1E0,2.8E1,2.1E1,6E0,6.9E1,4.6E1,2.26E2,2.23E2,2.427E3,4.56E2,5E0,1.6E1,6E0,3.79E2],"tree_param":{"num_deleted":"0","num_feature":"153","num_nodes":"55","size_leaf_vector":"0"}},{"base_weights":[-1.5278696E-1,-1.7922907E-1,-9.453979E-2,2.3013318E-1,-1.813787E-1,-6.228573E-2,-1.6534117E-1,4.5060006E-1,-1.873783E-1,-2.3317781E-1,-1.6695073E-1,-9.540675E-2,3.753656E-2,-1.8003464E-1,4.850201E-2,5.02272E-1,-1.6223957E-1,-2.8584784E-1,3.0018896E-1,-2.3712534E-1,2.7362016E-1,-2.3939815E-1,-1.5376884E-1,-1.2639602E-1,6.293749E-2,1.2586474E-1,-1.3213018E-1,-2.6129875E-1,-1.4649835E-1,1.6558889E-1,-2.5801426E-1,-2.4830817E-1,-1.4080052E-1,4.5903245E-1,-1.8841113E-1,2.2176667E-1,-2.5393048E-1,4.534626E-2,-1.5942828E-1,-6.332286E-2,-1.965436E-1,1.7800741E-1,-8.43325E-2,2.4807611E-1,-1.13963276E-1,-1.0747227E-3,-2.8422892E-1,3.8915673E-1,-2.7112472E-1,-1.5957148E-1,2.232153E-1,-1.6777721E-1,3.0959216E-1,2.9516172E-1,-3.3513588E-1],"categories":[],"categories_nodes":[],"categories_segments":[],"categories_sizes":[],"default_left":[false,false,false,false,false,false,false,false,false,false,false,false,false,false,false,false,false,false,false,false,false,false,false,false,false,false,false,false,false,false,false,false,false,false,false,false,false,false,false,false,false,false,false,false,false,false,false,false,false,false,false,false,false,false,false],"id":24,"left_children":[1,3,5,7,9,11,13,15,17,19,21,23,25,27,29,-1,-1,-1,-1,31,33,35,37,39,41,43,45,47,49,51,53,-1,-1,-1,-1,-1,-1,-1,-1,-1,-1,-1,-1,-1,-1,-1,-1,-1,-1,-1,-1,-1,-1,-1,-1],"loss_changes":[1.0085083E1,4.0104675E0,4.6711483E0,2.2935717E0,3.3144684E0,4.665346E0,2.0228157E0,5.881541E-1,5.17903E-1,2.0154686E0,3.318077E0,5.2044373E0,5.2918277E0,1.5968971E0,1.5500637E0,0E0,0E0,0E0,0E0,1.0077553E0,7.718171E-1,3.668581E0,3.359703E0,3.9076004E0,2.963676E0,6.8281245E0,2.4116325E0,1.2176065E0,2.0994463E0,1.5401227E0,6.1086106E-1,1.3340836E0,5.5917206E0,0E0,0E0,1.6413615E0,3.0641441E0,4.1972427E0,3.2968445E0,5.15562E0,3.4613514E0,2.0682034E0,2.4267898E0,4.129362E0,3.9797928E0,2.835401E0,2.000452E0,0E0,1.0092077E0,1.4672499E0,2.4132109E0,8.485244E-1,1.5325911E0,0E0,0E0],"parents":[2147483647,0,0,1,1,2,2,3,3,4,4,5,5,6,6,7,7,8,8,9,9,10,10,11,11,12,12,13,13,14,14,19,19,20,20,21,21,22,22,23,23,24,24,25,25,26,26,27,27,28,28,29,29,30,30],"right_children":[2,4,6,8,10,12,14,16,18,20,22,24,26,28,30,-1,-1,-1,-1,32,34,36,38,40,42,44,46,48,50,52,54,-1,-1,-1,-1,-1,-1,-1,-1,-1,-1,-1,-1,-1,-1,-1,-1,-1,-1,-1,-1,-1,-1,-1,-1],"split_conditions":[2.2894173E0,-1.07E1,1.1108114E0,9.8460484E-1,1.2534817E0,8.094946E-1,1.0307751E0,1.5038223E0,1.0291635E0,1.4641005E0,3.26E1,3.5346084E0,2.4068707E1,2.7112088E-1,8.561914E-1,1.506816E-2,-4.867187E-3,-8.575435E-3,9.005669E-3,1.0154402E0,3.68E1,1.003666E0,-2E0,3.093107E0,2.3820255E1,1.2246E2,-1.709E1,-4.7369517E-15,1.103617E0,-2.159E1,9.417272E-1,-7.4492446E-3,-4.2240154E-3,1.3770973E-2,-5.6523336E-3,6.6529997E-3,-7.617914E-3,1.3603878E-3,-4.7828485E-3,-1.8996857E-3,-5.896308E-3,5.3402223E-3,-2.529975E-3,7.442283E-3,-3.4188982E-3,-3.224168E-5,-8.526867E-3,1.1674701E-2,-8.133741E-3,-4.7871443E-3,6.696459E-3,-5.033316E-3,9.287764E-3,8.854851E-3,-1.0054076E-2],"split_indices":[59,29,51,11,59,64,5,51,5,60,1,58,49,52,64,0,0,0,0,10,0,22,23,50,44,36,40,86,63,41,12,0,0,0,0,0,0,0,0,0,0,0,0,0,0,0,0,0,0,0,0,0,0,0,0],"split_type":[0,0,0,0,0,0,0,0,0,0,0,0,0,0,0,0,0,0,0,0,0,0,0,0,0,0,0,0,0,0,0,0,0,0,0,0,0,0,0,0,0,0,0,0,0,0,0,0,0,0,0,0,0,0,0],"sum_hessian":[6.558E3,4.509E3,2.049E3,2.3E1,4.486E3,1.409E3,6.4E2,1.5E1,8E0,9.74E2,3.512E3,1.058E3,3.51E2,5.99E2,4.1E1,1.4E1,1E0,7E0,1E0,9.67E2,7E0,5.38E2,2.974E3,8.85E2,1.73E2,2.31E2,1.2E2,1.73E2,4.26E2,3E1,1.1E1,8.65E2,1.02E2,5E0,2E0,1.6E1,5.22E2,8.2E1,2.892E3,4.67E2,4.18E2,9.7E1,7.6E1,1.53E2,7.8E1,6.5E1,5.5E1,2E0,1.71E2,4.12E2,1.4E1,9E0,2.1E1,1E0,1E1],"tree_param":{"num_deleted":"0","num_feature":"153","num_nodes":"55","size_leaf_vector":"0"}},{"base_weights":[-1.4820309E-1,-1.738516E-1,-9.170409E-2,2.2367214E-1,-1.7593911E-1,-1.16188325E-1,-3.3881792E-3,4.377196E-1,-1.8170916E-1,-2.2618613E-1,-1.6194345E-1,-7.34149E-4,-1.3404582E-1,-1.0484849E-1,9.673438E-2,4.8820838E-1,-1.5980597E-1,-2.7834433E-1,2.9568613E-1,2.66659E-1,-2.3002556E-1,1.3065645E-2,-1.6702223E-1,-2.3455659E-1,8.862942E-2,-1.8005183E-1,-7.457746E-2,-2.4672501E-1,5.2060443E-3,1.9355191E-1,-1.4984646E-1,-1.8402272E-1,4.4755667E-1,-2.4213907E-1,-1.4562285E-1,2.0343117E-1,-1.4638671E-1,-1.5707727E-1,-2.5503385E-1,-3.057377E-1,3.4806302E-1,2.754276E-1,-2.6641207E-2,1.1680216E-3,-2.0212184E-1,6.0017336E-2,-1.560609E-1,-5.3318977E-2,-3.3252892E-1,-1.3597055E-1,1.7306773E-1,-9.361663E-2,2.884729E-1,3.1509135E-2,-3.4391886E-1],"categories":[],"categories_nodes":[],"categories_segments":[],"categories_sizes":[],"default_left":[false,false,false,false,false,false,false,false,false,false,false,false,false,false,false,false,false,false,false,false,false,false,false,false,false,false,false,false,false,false,false,false,false,false,false,false,false,false,false,false,false,false,false,false,false,false,false,false,false,false,false,false,false,false,false],"id":25,"left_children":[1,3,5,7,9,11,13,15,17,19,21,23,25,27,29,-1,-1,-1,-1,31,33,35,37,39,41,43,45,47,49,51,53,-1,-1,-1,-1,-1,-1,-1,-1,-1,-1,-1,-1,-1,-1,-1,-1,-1,-1,-1,-1,-1,-1,-1,-1],"loss_changes":[9.4888E0,3.7819214E0,4.432419E0,2.1620378E0,3.1188202E0,3.3089638E0,4.540818E0,5.6071186E-1,4.9750116E-1,1.9062767E0,3.1246567E0,4.5341535E0,3.7894764E0,3.4676268E0,5.400507E0,0E0,0E0,0E0,0E0,7.3457885E-1,9.5443726E-1,3.065203E0,2.94812E0,2.5947073E0,3.3879158E0,3.1318626E0,6.677454E0,1.5919843E0,3.009498E0,4.4428535E0,2.263388E0,0E0,0E0,6.705246E-1,3.2111673E0,1.9106846E0,2.0325866E0,1.2630302E1,1.5932484E0,1.5268216E0,5.236283E-1,2.7880154E0,2.720766E0,2.3092952E0,2.2284412E0,5.91852E0,5.166398E0,1.5817055E0,7.001066E-1,1.8924035E0,3.659997E0,1.9595636E0,4.694128E0,3.1634119E0,0E0],"parents":[2147483647,0,0,1,1,2,2,3,3,4,4,5,5,6,6,7,7,8,8,9,9,10,10,11,11,12,12,13,13,14,14,19,19,20,20,21,21,22,22,23,23,24,24,25,25,26,26,27,27,28,28,29,29,30,30],"right_children":[2,4,6,8,10,12,14,16,18,20,22,24,26,28,30,-1,-1,-1,-1,32,34,36,38,40,42,44,46,48,50,52,54,-1,-1,-1,-1,-1,-1,-1,-1,-1,-1,-1,-1,-1,-1,-1,-1,-1,-1,-1,-1,-1,-1,-1,-1],"split_conditions":[2.2894173E0,-1.07E1,8.6570287E-1,9.8460484E-1,1.2534817E0,1.6547346E1,-7.15E0,1.5038223E0,1.0291635E0,-1.067E1,-2E0,8.80265E-1,2.2402075E1,1.0393739E0,1.045607E0,1.4646251E-2,-4.794179E-3,-8.3503295E-3,8.870584E-3,3.7830193E1,9.236E1,6.4308834E0,2.5473157E-1,1.0270208E0,1.0685911E1,-2.95E1,-2.086E1,3.11E1,1.96E0,1.07E1,2.4300017E0,-5.5206814E-3,1.34267E-2,-7.264172E-3,-4.368685E-3,6.102935E-3,-4.3916013E-3,-4.712318E-3,-7.651015E-3,-9.172131E-3,1.044189E-2,8.262828E-3,-7.992362E-4,3.5040648E-5,-6.063655E-3,1.80052E-3,-4.681827E-3,-1.5995693E-3,-9.975867E-3,-4.0791165E-3,5.192032E-3,-2.8084987E-3,8.6541865E-3,9.45274E-4,-1.0317566E-2],"split_indices":[59,29,63,11,59,61,39,51,5,43,23,18,65,6,20,0,0,0,0,4,37,83,87,20,72,31,43,0,33,35,60,0,0,0,0,0,0,0,0,0,0,0,0,0,0,0,0,0,0,0,0,0,0,0,0],"split_type":[0,0,0,0,0,0,0,0,0,0,0,0,0,0,0,0,0,0,0,0,0,0,0,0,0,0,0,0,0,0,0,0,0,0,0,0,0,0,0,0,0,0,0,0,0,0,0,0,0,0,0,0,0,0,0],"sum_hessian":[6.558E3,4.509E3,2.049E3,2.3E1,4.486E3,1.604E3,4.45E2,1.5E1,8E0,9.74E2,3.512E3,2.15E2,1.389E3,2.21E2,2.24E2,1.4E1,1E0,7E0,1E0,7E0,9.67E2,9.9E1,3.413E3,5.9E1,1.56E2,7.82E2,6.07E2,9.6E1,1.25E2,1.61E2,6.3E1,2E0,5E0,8.44E2,1.23E2,4.5E1,5.4E1,3.069E3,3.44E2,5.3E1,6E0,5.9E1,9.7E1,8.5E1,6.97E2,2.29E2,3.78E2,3E1,6.6E1,6.8E1,5.7E1,4E1,1.21E2,3.3E1,3E1],"tree_param":{"num_deleted":"0","num_feature":"153","num_nodes":"55","size_leaf_vector":"0"}},{"base_weights":[-1.4375977E-1,-1.6892584E-1,-8.941035E-2,-9.217564E-2,-1.792836E-1,-7.8351475E-2,-2.6156738E-1,-1.1316E-1,4.2683008E-1,-2.0398577E-1,-1.5115975E-1,-6.508769E-2,-2.2975235E-1,-2.7496225E-1,3.748106E-1,2.6468158E-1,-1.3055797E-1,5.0969595E-1,-2.4026355E-1,-2.11495E-1,-9.300438E-3,3.298665E-1,-1.5553613E-1,3.5399806E-1,-6.952451E-2,2.5351304E-1,-2.4731709E-1,-2.819528E-1,2.8894296E-1,-1.8842022E-1,4.7468987E-1,4.0315893E-1,-1.4357466E-1,-5.1771805E-2,-2.2083874E-1,-2.7662975E-1,3.5265395E-1,-2.3650964E-1,5.855657E-1,-1.096954E-1,-2.082426E-1,4.8285565E-1,-1.0337423E-1,-4.129117E-2,-1.4232549E-1,-1.8724884E-1,3.7911516E-1,1.8848348E-1,-2.5735658E-1,2.8528586E-1,-2.8899845E-1],"categories":[],"categories_nodes":[],"categories_segments":[],"categories_sizes":[],"default_left":[false,false,false,false,false,false,false,false,false,true,false,false,false,false,false,false,false,false,false,false,false,false,false,false,false,false,false,false,false,false,false,false,false,false,false,false,false,false,false,false,false,false,false,false,false,false,false,false,false,false,false],"id":26,"left_children":[1,3,5,7,9,11,13,15,17,19,21,23,25,27,-1,29,31,-1,-1,33,35,37,39,41,43,45,47,49,-1,-1,-1,-1,-1,-1,-1,-1,-1,-1,-1,-1,-1,-1,-1,-1,-1,-1,-1,-1,-1,-1,-1],"loss_changes":[8.956039E0,3.546486E0,3.935732E0,5.8749857E0,2.711914E0,3.908969E0,1.168582E0,3.4199982E0,1.2833257E0,3.0666428E0,3.9458466E0,3.3678274E0,1.3953819E0,5.663357E-1,0E0,2.2780094E0,3.4828663E0,0E0,0E0,3.0047379E0,7.7416744E0,2.6004643E0,4.408291E0,1.1696963E0,3.6527634E0,4.031527E-1,7.1354103E-1,5.700283E-1,0E0,2.9912674E-1,0E0,5.806415E-1,2.675765E0,4.714978E0,1.2723312E0,5.4324245E-1,2.8159218E0,0E0,0E0,6.402669E0,3.9131126E0,0E0,3.7566608E-1,6.3282685E0,3.5394077E0,0E0,0E0,3.1320316E-1,7.004299E-1,0E0,